{"learner":{"attributes":{"best_iteration":"99","best_ntree_limit":"100","scikit_learn":"{\"n_estimators\": 100, \"objective\": \"reg:squarederror\", \"max_depth\": 8, \"learning_rate\": 0.2, \"verbosity\": null, \"booster\": null, \"tree_method\": null, \"gamma\": 0.01, \"min_child_weight\": null, \"max_delta_step\": null, \"subsample\": null, \"colsample_bytree\": 0.5, \"colsample_bylevel\": null, \"colsample_bynode\": null, \"reg_alpha\": null, \"reg_lambda\": null, \"scale_pos_weight\": null, \"base_score\": null, \"missing\": NaN, \"num_parallel_tree\": null, \"random_state\": null, \"n_jobs\": null, \"monotone_constraints\": null, \"interaction_constraints\": null, \"importance_type\": null, \"gpu_id\": null, \"validate_parameters\": null, \"predictor\": null, \"enable_categorical\": false, \"kwargs\": {\"n_estimator\": 150}, \"_estimator_type\": \"regressor\"}"},"feature_names":["mark","model","year","mileage","vol_engine","fuel","province"],"feature_types":["int","int","int","int","int","int","int"],"gradient_booster":{"model":{"gbtree_model_param":{"num_trees":"100","size_leaf_vector":"0"},"tree_info":[0,0,0,0,0,0,0,0,0,0,0,0,0,0,0,0,0,0,0,0,0,0,0,0,0,0,0,0,0,0,0,0,0,0,0,0,0,0,0,0,0,0,0,0,0,0,0,0,0,0,0,0,0,0,0,0,0,0,0,0,0,0,0,0,0,0,0,0,0,0,0,0,0,0,0,0,0,0,0,0,0,0,0,0,0,0,0,0,0,0,0,0,0,0,0,0,0,0,0,0],"trees":[{"base_weights":[6.898851E4,1.6743784E5,4.7424984E4,1.4259475E5,4.215185E5,8.029052E4,3.5337184E4,1.0568049E5,2.0748588E5,4.5903706E5,3.1140794E5,5.1215113E4,1.3248411E5,2.506861E4,4.6968473E4,2.086992E5,9.882137E4,2.2646647E5,1.6691112E5,4.2468175E5,5.6007375E5,2.9386988E5,3.6092875E5,4.1412953E4,5.8653434E4,1.1443886E5,2.1105905E5,3.0872965E4,2.0503719E4,7.201638E4,3.7427086E4,2.4259636E5,1.5641894E5,7.472164E4,1.14531836E5,2.4728964E5,2.014875E5,1.983105E5,1.27418016E5,4.257966E5,8.8574625E4,6.49865E5,3.4603122E5,2.9992028E5,1.15345E5,4.3241753E5,2.3175498E5,4.9907715E4,3.477425E4,6.9502766E4,5.2252336E4,1.28321875E5,9.111587E4,2.6451303E5,1.836861E5,2.2392371E4,3.546518E4,2.323583E4,1.786112E4,6.448557E4,1.1776836E5,3.3648465E4,5.6525184E4,1.9653598E5,2.7117312E5,1.6516044E5,9.443795E4,8.775082E4,6.189603E4,1.358386E5,9.149558E4,2.6345794E5,2.3465095E5,2.1898583E5,1.8163331E5,1.7955878E5,2.0939575E5,1.438258E5,1.14104914E5,4.1651703E5,4.889083E5,2.7780928E5,5.9856425E5,3.0818138E5,2.6355638E5,1.429975E4,1.2401955E5,2.660626E5,1.8266614E5,7.781779E4,4.9279215E4,3.8821484E4,3.2161695E4,5.905367E4,7.293226E4,5.6765945E4,4.7800426E4,1.4715436E5,1.1564758E5,1.0258259E5,8.092051E4,2.8155172E5,1.8005981E5,2.0444403E5,1.6679823E5,2.5060648E4,2.0431463E4,6.0762984E4,3.491533E4,1.7320143E4,2.5314412E4,1.8998902E4,1.3322987E4,8.433747E4,5.535338E4,2.8658038E5,1.15462945E5,4.4948457E4,2.9359828E4,8.050704E4,4.7800766E4,2.2860783E5,1.8673928E5,1.7447697E5,1.42331E5,8.283777E4,9.723413E4,7.054733E4,5.6242742E4,1.17575766E5,1.3962734E5,1.0361554E5,8.420052E4,2.9674412E5,2.5643519E5,2.2495134E5,2.4505905E5,2.5094212E5,2.1112342E5,1.9551656E5,1.5033636E5,2.2216664E5,1.7626508E5,1.309334E5,1.6300628E5,9.348026E4,1.1677573E5,4.2493697E5,3.5822453E5,5.0821022E5,3.3403875E5,3.033444E5,1.758611E5,1.1349746E6,4.0254953E5,3.1005203E5,2.329546E5,1.3346622E5,1.949975E4,1.08249625E5,2.888869E5,1.224975E4,7.884314E4,4.7220242E4,5.5941266E4,4.1041375E4,3.5657875E4,3.564379E4,2.989263E4,8.083755E4,5.1307355E4,8.288708E4,6.870349E4,7.4395984E4,5.556084E4,6.546891E4,4.689585E4,1.618894E5,1.3352986E5,1.7814045E5,1.1395822E5,9.570485E4,1.18317555E5,7.551824E4,9.2344805E4,2.661887E5,3.232002E5,1.6983058E5,3.8599966E5,2.2830589E5,1.7634411E5,1.3432689E5,1.9325334E5,3.0299863E4,2.4074572E4,1.8930154E4,2.3147295E4,2.362932E4,3.605674E4,1.5734371E4,1.9474303E4,2.6909543E4,2.1270104E4,1.4637195E4,2.0197043E4,1.4877476E4,1.2016794E4,7.732169E4,1.2120957E5,6.360001E4,4.6364133E4,1.2962258E5,9.873523E4,4.1709906E4,8.964624E4,3.4094953E4,2.4126871E4,9.1780586E4,6.610443E4,5.8225348E4,4.2739812E4,1.7067453E5,2.9629966E5,1.2213807E5,2.0284447E5,8.509715E4,6.5081688E4,7.16493E4,4.492589E4,5.8163773E4,4.309865E4,1.2630803E5,6.8418234E4,2.163177E5,1.3700977E5,9.314373E4,1.0884512E5,7.3454625E4,9.140621E4,2.464388E5,2.884441E5,2.3306122E5,1.9834997E5,2.48582E5,2.1303136E5,1.8499039E5,2.2186808E5,2.138221E5,1.894714E5,3.224975E4,1.5067833E5,2.3151494E5,1.80348E5,1.8400369E5,1.3762427E5,1.3775788E5,1.193329E5,1.6642148E5,9.670211E4,4.59975E3,9.504101E4,1.1324556E5,1.3700089E5,3.3463138E5,4.2451772E5,9.0999664E4,3.6696197E5,1.316633E6,2.9499975E5,2.8222494E5,9.8338475E5,1.04999664E5,3.0765653E5,4.9826676E4,3.317981E4,9.070842E4,4.8781797E4,3.818754E4,4.4213785E4,2.4054457E4,4.1258246E4,3.1776111E4,4.416558E4,2.4948316E4,3.439512E4,3.6627082E4,5.9317027E4,6.764674E4,8.5963984E4,6.547089E4,7.8589664E4,3.1600773E4,5.778976E4,2.7329809E4,4.8204598E4,1.4424731E5,1.8441573E5,2.1333E4,1.3378986E5,6.3648445E4,1.1637519E5,9.843777E4,7.488493E4,1.4296216E5,9.5915914E4,7.757115E4,5.531065E4,1.11969875E5,7.51651E4,2.831319E5,1.0744214E5,4.3603194E5,2.378674E5,9.570354E4,1.8318362E5,2.1579984E5,2.4904977E5,1.8923236E5,1.5760452E5,1.7204803E5,8.444497E4,4.171137E5,1.8060202E5,2.6161361E4,3.4839844E4,1.363113E4,2.5178434E4,2.2503062E4,1.6646441E4,2.8166719E4,2.0464715E4,2.5912234E4,2.1683914E4,4.0245754E4,3.2522725E4,1.8065863E4,1.4642964E4,2.3847725E4,1.7821172E4,2.6099805E4,4.7078254E4,2.2642947E4,1.5437633E4,1.2195193E4,1.5982537E4,2.1245182E4,1.616274E4,1.5631155E4,1.2907745E4,1.2407811E4,1.0541232E4,1.4595917E5,7.546583E4,1.4369686E5,1.08930836E5,7.006181E4,5.930424E4,5.0651145E4,4.3076254E4,5.2990434E4,1.326212E5,1.0535891E5,8.2324516E4,5.0855812E4,3.4074254E4,1.0909717E5,6.774883E4,3.8034777E4,3.0633559E4,2.5905248E4,2.0883047E4,9.473896E4,8.2928766E4,5.664899E4,1.0625703E5,6.565728E4,4.6919992E4,4.6998742E4,3.7787633E4],"categories":[],"categories_nodes":[],"categories_segments":[],"categories_sizes":[],"default_left":[true,true,true,true,true,true,true,true,true,true,true,true,true,true,true,true,true,true,true,true,true,true,true,true,true,true,true,true,true,true,true,true,true,true,true,true,true,true,true,true,false,false,true,true,true,false,true,true,true,true,true,true,true,true,true,true,true,true,true,true,true,true,true,true,false,true,false,true,true,true,true,true,true,true,true,false,true,true,true,true,true,true,true,false,true,false,true,true,false,true,true,true,true,true,true,true,true,true,true,true,true,true,true,true,true,true,true,false,true,true,true,true,true,true,true,false,true,true,true,true,true,false,false,true,true,true,false,true,true,true,true,true,true,false,true,true,true,false,true,true,true,true,true,true,true,true,true,false,true,false,true,false,false,true,true,false,false,false,false,false,true,false,false,true,true,true,true,true,true,false,true,true,true,false,true,false,true,true,true,false,true,true,true,true,true,true,true,true,false,true,true,true,true,true,true,true,true,true,true,true,true,true,true,true,true,true,true,true,true,true,true,true,true,true,true,true,true,true,true,true,true,false,false,false,false,false,false,false,false,false,false,false,false,false,false,false,false,false,false,false,false,false,false,false,false,false,false,false,false,false,false,false,false,false,false,false,false,false,false,false,false,false,false,false,false,false,false,false,false,false,false,false,false,false,false,false,false,false,false,false,false,false,false,false,false,false,false,false,false,false,false,false,false,false,false,false,false,false,false,false,false,false,false,false,false,false,false,false,false,false,false,false,false,false,false,false,false,false,false,false,false,false,false,false,false,false,false,false,false,false,false,false,false,false,false,false,false,false,false,false,false,false,false,false,false,false,false,false,false,false,false,false,false,false,false,false,false,false,false,false,false,false,false,false,false,false,false,false,false,false,false,false,false,false,false,false,false,false,false],"id":0,"left_children":[1,3,5,7,9,11,13,15,17,19,21,23,25,27,29,31,33,35,37,39,41,43,45,47,49,51,53,55,57,59,61,63,65,67,69,71,73,75,77,79,-1,-1,81,83,85,-1,87,89,91,93,95,97,99,101,103,105,107,109,111,113,115,117,119,121,-1,123,-1,125,127,129,131,133,135,137,139,-1,141,143,145,147,149,151,153,-1,155,-1,157,159,-1,161,163,165,167,169,171,173,175,177,179,181,183,185,187,189,191,193,195,-1,197,199,201,203,205,207,209,-1,211,213,215,217,219,-1,-1,221,223,225,-1,227,229,231,233,235,237,-1,239,241,243,-1,245,247,249,251,253,255,257,259,261,-1,263,-1,265,-1,-1,267,269,-1,-1,-1,-1,-1,271,-1,-1,273,275,277,279,281,283,-1,285,287,289,-1,291,-1,293,295,297,-1,299,301,303,305,307,309,311,313,-1,315,317,319,321,323,325,327,329,331,333,335,337,339,341,343,345,347,349,351,353,355,357,359,361,363,365,367,369,371,373,375,377,-1,-1,-1,-1,-1,-1,-1,-1,-1,-1,-1,-1,-1,-1,-1,-1,-1,-1,-1,-1,-1,-1,-1,-1,-1,-1,-1,-1,-1,-1,-1,-1,-1,-1,-1,-1,-1,-1,-1,-1,-1,-1,-1,-1,-1,-1,-1,-1,-1,-1,-1,-1,-1,-1,-1,-1,-1,-1,-1,-1,-1,-1,-1,-1,-1,-1,-1,-1,-1,-1,-1,-1,-1,-1,-1,-1,-1,-1,-1,-1,-1,-1,-1,-1,-1,-1,-1,-1,-1,-1,-1,-1,-1,-1,-1,-1,-1,-1,-1,-1,-1,-1,-1,-1,-1,-1,-1,-1,-1,-1,-1,-1,-1,-1,-1,-1,-1,-1,-1,-1,-1,-1,-1,-1,-1,-1,-1,-1,-1,-1,-1,-1,-1,-1,-1,-1,-1,-1,-1,-1,-1,-1,-1,-1,-1,-1,-1,-1,-1,-1,-1,-1,-1,-1,-1,-1,-1,-1],"loss_changes":[1.967905E14,1.0507503E14,3.0208501E13,3.6325995E13,5.983611E12,3.1024067E13,6.6395077E12,6.8151904E12,4.1986829E12,3.5942836E12,2.2395906E11,9.551919E11,1.0347818E13,7.818539E11,6.227585E12,1.0306621E12,3.4262766E12,1.8981071E12,2.153515E12,2.7256265E11,5.098831E12,2.7432845E11,7.770598E11,3.1801947E11,5.147942E11,1.9152031E12,1.9486694E12,5.0544824E11,1.18958326E11,2.4697152E12,1.360563E12,4.2582252E11,1.1443634E11,5.9331366E11,2.6822155E12,3.546368E11,5.536146E11,1.6548626E11,1.541889E11,2.7950842E11,0E0,0E0,1.2808901E12,1.6903045E9,7.868285E9,0E0,1.2027691E10,3.975571E10,3.243901E10,9.484894E10,9.1709506E10,8.728095E11,2.5170018E11,6.112317E11,2.835035E11,2.3393993E10,1.1515462E11,9.94805E10,4.3166204E10,1.1149886E12,3.6192964E11,7.626293E11,6.483146E11,2.2402826E9,0E0,1.9618857E10,0E0,7.464498E10,8.450736E10,1.8078709E11,2.2478114E11,1.3101328E11,6.1274587E10,1.7390004E11,3.2081602E11,0E0,2.1808913E11,6.421689E10,1.3100384E10,2.0411161E11,1.2916569E11,1.23675345E11,1.3305701E12,0E0,1.0297541E10,0E0,7.271088E9,3.7165597E10,0E0,2.597421E9,3.0731665E10,7.280001E9,1.4278328E10,1.1211768E11,8.182458E10,4.532732E10,3.484051E10,2.787157E11,2.1544462E11,1.0155144E11,6.5975878E10,1.5774987E11,1.0297383E11,2.2928792E11,4.0785307E11,9.246605E9,1.0321789E10,0E0,1.0547626E11,6.921847E9,3.8205653E10,3.4827928E10,3.2506511E9,4.9351334E11,3.1084826E11,0E0,2.247717E11,6.2377794E11,2.823983E11,1.2869907E11,1.18222225E11,0E0,0E0,1.6133128E10,5.5873372E10,4.164E10,0E0,1.6855597E10,2.5243419E10,2.0426942E11,4.4311144E11,4.396784E10,1.2135694E11,0E0,1.6537721E11,8.515486E10,8.537506E9,0E0,1.6421539E11,2.0902314E10,5.3168046E9,1.2830376E11,2.670723E10,3.444572E8,1.4476378E10,7.1924777E9,1.175978E10,0E0,1.1220812E10,0E0,7.862944E10,0E0,0E0,2.2194736E11,7.00907E11,0E0,0E0,0E0,0E0,0E0,2.2920036E10,0E0,0E0,6.659742E10,1.3720735E11,4.875354E9,3.2863945E10,2.3678812E10,2.5455297E10,0E0,5.7912984E10,2.3024108E10,4.167303E10,0E0,1.1475721E11,0E0,5.65539E10,2.5715068E11,1.9986907E10,0E0,2.5731006E11,3.4222375E10,1.5908838E11,2.9229056E10,1.1801618E11,7.3344745E11,8.3985066E11,5.9674722E10,0E0,1.7710449E9,1.5823536E10,4.1823974E11,7.063365E11,4.7627305E9,1.8447663E10,1.3537313E10,1.2013371E10,2.8178842E9,1.09632815E11,2.8500623E9,6.0312453E9,6.9110596E10,1.3302497E10,4.575396E9,2.1940929E10,9.368863E8,4.0175206E8,1.9738185E11,6.9666865E10,5.705197E10,2.64173E10,1.1705883E11,4.1762685E10,2.8067968E11,1.1697888E11,8.06313E10,3.080061E10,4.2682286E9,1.3369567E11,5.9514814E10,3.078855E10,0E0,0E0,0E0,0E0,0E0,0E0,0E0,0E0,0E0,0E0,0E0,0E0,0E0,0E0,0E0,0E0,0E0,0E0,0E0,0E0,0E0,0E0,0E0,0E0,0E0,0E0,0E0,0E0,0E0,0E0,0E0,0E0,0E0,0E0,0E0,0E0,0E0,0E0,0E0,0E0,0E0,0E0,0E0,0E0,0E0,0E0,0E0,0E0,0E0,0E0,0E0,0E0,0E0,0E0,0E0,0E0,0E0,0E0,0E0,0E0,0E0,0E0,0E0,0E0,0E0,0E0,0E0,0E0,0E0,0E0,0E0,0E0,0E0,0E0,0E0,0E0,0E0,0E0,0E0,0E0,0E0,0E0,0E0,0E0,0E0,0E0,0E0,0E0,0E0,0E0,0E0,0E0,0E0,0E0,0E0,0E0,0E0,0E0,0E0,0E0,0E0,0E0,0E0,0E0,0E0,0E0,0E0,0E0,0E0,0E0,0E0,0E0,0E0,0E0,0E0,0E0,0E0,0E0,0E0,0E0,0E0,0E0,0E0,0E0,0E0,0E0,0E0,0E0,0E0,0E0,0E0,0E0,0E0,0E0,0E0,0E0,0E0,0E0,0E0,0E0,0E0,0E0,0E0,0E0,0E0,0E0,0E0,0E0,0E0,0E0,0E0,0E0,0E0,0E0,0E0,0E0,0E0,0E0],"parents":[2147483647,0,0,1,1,2,2,3,3,4,4,5,5,6,6,7,7,8,8,9,9,10,10,11,11,12,12,13,13,14,14,15,15,16,16,17,17,18,18,19,19,20,20,21,21,22,22,23,23,24,24,25,25,26,26,27,27,28,28,29,29,30,30,31,31,32,32,33,33,34,34,35,35,36,36,37,37,38,38,39,39,42,42,43,43,44,44,46,46,47,47,48,48,49,49,50,50,51,51,52,52,53,53,54,54,55,55,56,56,57,57,58,58,59,59,60,60,61,61,62,62,63,63,65,65,67,67,68,68,69,69,70,70,71,71,72,72,73,73,74,74,76,76,77,77,78,78,79,79,80,80,81,81,82,82,84,84,86,86,87,87,89,89,90,90,91,91,92,92,93,93,94,94,95,95,96,96,97,97,98,98,99,99,100,100,101,101,102,102,103,103,104,104,105,105,106,106,108,108,109,109,110,110,111,111,112,112,113,113,114,114,116,116,117,117,118,118,119,119,120,120,123,123,124,124,125,125,127,127,128,128,129,129,130,130,131,131,132,132,134,134,135,135,136,136,138,138,139,139,140,140,141,141,142,142,143,143,144,144,145,145,146,146,148,148,150,150,153,153,154,154,160,160,163,163,164,164,165,165,166,166,167,167,168,168,170,170,171,171,172,172,174,174,176,176,177,177,178,178,180,180,181,181,182,182,183,183,184,184,185,185,186,186,187,187,189,189,190,190,191,191,192,192,193,193,194,194,195,195,196,196,197,197,198,198,199,199,200,200,201,201,202,202,203,203,204,204,205,205,206,206,207,207,208,208,209,209,210,210,211,211,212,212,213,213,214,214,215,215,216,216,217,217,218,218,219,219,220,220],"right_children":[2,4,6,8,10,12,14,16,18,20,22,24,26,28,30,32,34,36,38,40,42,44,46,48,50,52,54,56,58,60,62,64,66,68,70,72,74,76,78,80,-1,-1,82,84,86,-1,88,90,92,94,96,98,100,102,104,106,108,110,112,114,116,118,120,122,-1,124,-1,126,128,130,132,134,136,138,140,-1,142,144,146,148,150,152,154,-1,156,-1,158,160,-1,162,164,166,168,170,172,174,176,178,180,182,184,186,188,190,192,194,196,-1,198,200,202,204,206,208,210,-1,212,214,216,218,220,-1,-1,222,224,226,-1,228,230,232,234,236,238,-1,240,242,244,-1,246,248,250,252,254,256,258,260,262,-1,264,-1,266,-1,-1,268,270,-1,-1,-1,-1,-1,272,-1,-1,274,276,278,280,282,284,-1,286,288,290,-1,292,-1,294,296,298,-1,300,302,304,306,308,310,312,314,-1,316,318,320,322,324,326,328,330,332,334,336,338,340,342,344,346,348,350,352,354,356,358,360,362,364,366,368,370,372,374,376,378,-1,-1,-1,-1,-1,-1,-1,-1,-1,-1,-1,-1,-1,-1,-1,-1,-1,-1,-1,-1,-1,-1,-1,-1,-1,-1,-1,-1,-1,-1,-1,-1,-1,-1,-1,-1,-1,-1,-1,-1,-1,-1,-1,-1,-1,-1,-1,-1,-1,-1,-1,-1,-1,-1,-1,-1,-1,-1,-1,-1,-1,-1,-1,-1,-1,-1,-1,-1,-1,-1,-1,-1,-1,-1,-1,-1,-1,-1,-1,-1,-1,-1,-1,-1,-1,-1,-1,-1,-1,-1,-1,-1,-1,-1,-1,-1,-1,-1,-1,-1,-1,-1,-1,-1,-1,-1,-1,-1,-1,-1,-1,-1,-1,-1,-1,-1,-1,-1,-1,-1,-1,-1,-1,-1,-1,-1,-1,-1,-1,-1,-1,-1,-1,-1,-1,-1,-1,-1,-1,-1,-1,-1,-1,-1,-1,-1,-1,-1,-1,-1,-1,-1,-1,-1,-1,-1,-1,-1],"split_conditions":[4.02695E4,2.7275E3,1.188015E5,1.9295E3,2.0101E4,1.93E3,1.949E3,3.25E2,1.9965E3,3.8435E3,3.793E3,1.3925E3,2.8415E3,1.743455E5,1.750415E5,1.25E1,1.3305E3,5.2695E3,6.056E3,3.4225E3,4.3995E3,3.0995E3,4.3975E3,7.5003E4,7.49745E4,1.9965E3,6.71825E4,1.393E3,2.09252E5,2.8585E3,2.9635E3,4.5E0,2.075E4,1.65E1,5.465E3,1.9765E3,1.976E3,1.5E0,2.13E4,2.9985E3,1.7714926E4,1.29973E5,5.505E3,3.4449E4,2.115E4,8.648351E4,8.5E0,7.62E2,9.2989E4,1.469E3,9.7992E4,7.40105E4,8.0548E4,4.731E3,2.994E3,1.421735E5,1.3955E3,1.3925E3,1.7995E3,1.972E3,2.9355E3,1.972E3,2.16788E5,5E-1,5.4234625E4,9.085E3,1.8887592E4,1.1985E3,1.7354E4,1.3815E3,1.999E4,1.9525E3,1.994E3,1.953E3,2.8885E4,3.5911758E4,1.9985E3,8.5E0,1.9975E3,1.1904E4,2.9995E3,9.15E3,5.9835E3,6.1636277E4,2.973E3,2.85995E3,3.705E4,1E0,3.653323E4,4.0941E4,1.3295E3,1.203E3,1.1975E3,1.3955E3,1.53E3,1.3955E3,1.3955E3,1.975E3,1.953E3,1.9995E3,1.9995E3,3.8435E3,6.446E3,9.7277E4,3.8565E3,9.995E2,1.361E3,1.2152597E4,1.3985E3,1.361E3,1.6855E3,1.4595E3,2.600615E5,1.9685E3,1.510845E5,5.7316074E4,1.503215E5,1.9685E3,2.3155E5,2.994E3,2.50769E5,4.5721566E4,3.7347855E4,8.825E3,1.97E4,1.0965E3,1.9446826E4,1.2145E3,1.2145E3,1.353E3,1.4255E3,1.4965E3,1.4965E3,5.9348824E4,1.9685E3,1.9925E3,1.9955E3,5.0188426E4,4.5E0,1.0725E4,1.9835E3,2.15E1,6.9E2,1.51115E4,2.4875E3,2.15625E4,1.35E1,8.49874E4,1.9788E4,1.0164205E5,7E0,6.0668883E4,3.517222E4,6.923E3,6.2205E3,6.2010406E4,4.6590918E4,2.6693244E4,3.89995E3,2.1649926E4,2.35E4,2.44995E3,1.5768628E4,1.203E3,1.336E3,1.1735E3,1.2995E3,1.1735E3,1.314E3,1.616751E4,1.3985E3,1.4965E3,1.609E3,1.4879197E4,1.3985E3,1.3093782E4,1.3975E3,1.9685E3,1.9825E3,3.562809E4,1.962E3,1.9985E3,2.1455E3,1.9985E3,2.1455E3,3.096E3,3.996E3,4.9695E3,7.719993E4,2.99E3,1.087405E5,3.0945E3,3.9875E3,9.985E2,1.196E3,1.1975E3,1.366E3,1.3965E3,1.47659E5,1.1975E3,1.366E3,1.609E3,1.845E3,1.2995E3,2.708285E5,1.905E3,3.461005E5,1.9505E3,1.3675E5,1.9965E3,1.620035E5,2.963E3,1.67956E5,2.22607E5,1.905E5,1.998385E5,2.8505E5,2.069645E5,4.6345E3,2.9955E3,2.960565E5,3.4134906E4,5.9259934E4,2.4427615E4,4.0568895E4,1.701943E4,1.3016338E4,1.4329859E4,8.985179E3,1.1632755E4,8.6197295E3,2.5261607E4,1.3683647E4,4.3263543E4,2.7401953E4,1.8628746E4,2.1769023E4,1.4690925E4,1.8281242E4,4.928776E4,5.768882E4,4.6612246E4,3.9669996E4,4.9716402E4,4.2606273E4,3.699808E4,4.4373617E4,4.2764418E4,3.789428E4,6.44995E3,3.0135666E4,4.630299E4,3.60696E4,3.680074E4,2.7524854E4,2.7551576E4,2.386658E4,3.3284297E4,1.9340422E4,9.1995E2,1.9008201E4,2.2649113E4,2.7400178E4,6.692627E4,8.490355E4,1.8199934E4,7.33924E4,2.633266E5,5.899995E4,5.644499E4,1.9667695E5,2.0999934E4,6.153131E4,9.965335E3,6.635962E3,1.8141686E4,9.756359E3,7.637508E3,8.842757E3,4.8108916E3,8.251649E3,6.355222E3,8.833116E3,4.9896636E3,6.8790244E3,7.3254165E3,1.1863405E4,1.3529349E4,1.7192797E4,1.3094179E4,1.5717933E4,6.320155E3,1.1557952E4,5.465962E3,9.64092E3,2.8849463E4,3.688315E4,4.2666E3,2.6757973E4,1.2729689E4,2.3275037E4,1.9687555E4,1.4976986E4,2.8592432E4,1.9183184E4,1.55142295E4,1.106213E4,2.2393975E4,1.50330205E4,5.6626383E4,2.1488428E4,8.720639E4,4.757348E4,1.9140709E4,3.6636727E4,4.315997E4,4.9809953E4,3.7846473E4,3.1520904E4,3.4409605E4,1.6888994E4,8.342274E4,3.6120402E4,5.2322725E3,6.9679688E3,2.726226E3,5.035687E3,4.500613E3,3.3292883E3,5.6333438E3,4.092943E3,5.182447E3,4.3367827E3,8.049151E3,6.504545E3,3.6131726E3,2.9285928E3,4.769545E3,3.5642344E3,5.219961E3,9.415651E3,4.5285894E3,3.0875266E3,2.4390388E3,3.1965076E3,4.2490366E3,3.232548E3,3.1262312E3,2.581549E3,2.4815623E3,2.1082466E3,2.9191834E4,1.5093166E4,2.8739373E4,2.1786168E4,1.4012362E4,1.1860848E4,1.01302295E4,8.615251E3,1.0598087E4,2.652424E4,2.1071781E4,1.6464904E4,1.0171163E4,6.814851E3,2.1819436E4,1.3549766E4,7.6069556E3,6.126712E3,5.18105E3,4.1766094E3,1.8947793E4,1.6585754E4,1.1329798E4,2.1251406E4,1.3131456E4,9.383999E3,9.399749E3,7.557527E3],"split_indices":[3,4,3,4,3,4,4,4,4,4,4,4,4,3,3,3,4,3,3,4,4,4,4,3,3,4,3,4,3,4,4,3,3,3,3,4,4,3,3,4,0,0,4,3,3,0,6,4,3,4,3,3,3,4,4,3,4,4,4,4,4,4,3,3,0,3,0,4,3,4,3,4,4,4,3,0,4,6,4,3,4,3,4,0,4,0,3,6,0,3,4,4,4,4,4,4,4,4,4,4,4,4,4,3,4,4,4,0,4,4,4,4,3,4,3,0,3,4,3,4,3,0,0,3,3,4,0,4,4,4,4,4,4,0,4,4,4,0,6,3,4,3,3,3,4,3,6,0,3,0,6,0,0,3,4,0,0,0,0,0,3,0,0,4,4,4,4,4,4,0,4,4,4,0,4,0,4,4,4,0,4,4,4,4,4,4,4,4,0,4,3,4,4,4,4,4,4,4,3,4,4,4,4,4,3,4,3,4,3,4,3,4,3,3,3,3,3,3,4,4,3,0,0,0,0,0,0,0,0,0,0,0,0,0,0,0,0,0,0,0,0,0,0,0,0,0,0,0,0,0,0,0,0,0,0,0,0,0,0,0,0,0,0,0,0,0,0,0,0,0,0,0,0,0,0,0,0,0,0,0,0,0,0,0,0,0,0,0,0,0,0,0,0,0,0,0,0,0,0,0,0,0,0,0,0,0,0,0,0,0,0,0,0,0,0,0,0,0,0,0,0,0,0,0,0,0,0,0,0,0,0,0,0,0,0,0,0,0,0,0,0,0,0,0,0,0,0,0,0,0,0,0,0,0,0,0,0,0,0,0,0,0,0,0,0,0,0,0,0,0,0,0,0,0,0,0,0,0,0],"split_type":[0,0,0,0,0,0,0,0,0,0,0,0,0,0,0,0,0,0,0,0,0,0,0,0,0,0,0,0,0,0,0,0,0,0,0,0,0,0,0,0,0,0,0,0,0,0,0,0,0,0,0,0,0,0,0,0,0,0,0,0,0,0,0,0,0,0,0,0,0,0,0,0,0,0,0,0,0,0,0,0,0,0,0,0,0,0,0,0,0,0,0,0,0,0,0,0,0,0,0,0,0,0,0,0,0,0,0,0,0,0,0,0,0,0,0,0,0,0,0,0,0,0,0,0,0,0,0,0,0,0,0,0,0,0,0,0,0,0,0,0,0,0,0,0,0,0,0,0,0,0,0,0,0,0,0,0,0,0,0,0,0,0,0,0,0,0,0,0,0,0,0,0,0,0,0,0,0,0,0,0,0,0,0,0,0,0,0,0,0,0,0,0,0,0,0,0,0,0,0,0,0,0,0,0,0,0,0,0,0,0,0,0,0,0,0,0,0,0,0,0,0,0,0,0,0,0,0,0,0,0,0,0,0,0,0,0,0,0,0,0,0,0,0,0,0,0,0,0,0,0,0,0,0,0,0,0,0,0,0,0,0,0,0,0,0,0,0,0,0,0,0,0,0,0,0,0,0,0,0,0,0,0,0,0,0,0,0,0,0,0,0,0,0,0,0,0,0,0,0,0,0,0,0,0,0,0,0,0,0,0,0,0,0,0,0,0,0,0,0,0,0,0,0,0,0,0,0,0,0,0,0,0,0,0,0,0,0,0,0,0,0,0,0,0,0,0,0,0,0,0,0,0,0,0,0,0,0,0,0,0,0,0,0,0,0,0,0,0,0,0,0,0,0,0,0,0,0,0,0],"sum_hessian":[9.2701E4,1.6655E4,7.6046E4,1.5173E4,1.482E3,2.0447E4,5.5599E4,9.673E3,5.5E3,1.103E3,3.79E2,1.3133E4,7.314E3,2.9531E4,2.6068E4,6.02E2,9.071E3,3.744E3,1.756E3,8.27E2,2.76E2,2.85E2,9.4E1,5.669E3,7.464E3,5.95E3,1.364E3,1.2998E4,1.6533E4,7.189E3,1.8879E4,3.63E2,2.39E2,3.582E3,5.489E3,2.037E3,1.707E3,9.76E2,7.8E2,8.24E2,3E0,1.93E2,8.3E1,2.75E2,1E1,5.9E1,3.5E1,2.484E3,3.185E3,2.766E3,4.698E3,3.727E3,2.223E3,4.59E2,9.05E2,4.568E3,8.43E3,8.125E3,8.408E3,6.175E3,1.014E3,1.5763E4,3.116E3,1.42E2,2.21E2,2.08E2,3.1E1,1.774E3,1.808E3,2.849E3,2.64E3,8.85E2,1.152E3,9.02E2,8.05E2,3.69E2,6.07E2,3.45E2,4.35E2,7.25E2,9.9E1,6.7E1,1.6E1,2.18E2,5.7E1,1E0,9E0,1.8E1,1.7E1,5.2E1,2.432E3,1.244E3,1.941E3,6.88E2,2.078E3,2.327E3,2.371E3,1.495E3,2.232E3,1.042E3,1.181E3,3.8E2,7.9E1,4.01E2,5.04E2,1.93E3,2.638E3,1.77E2,8.253E3,2.115E3,6.01E3,6.72E3,1.688E3,1.943E3,4.232E3,1.2E1,1.002E3,4.334E3,1.1429E4,8.29E2,2.287E3,2.8E1,1.14E2,1.43E2,6.5E1,1.175E3,5.99E2,7.1E2,1.098E3,4.95E2,2.354E3,9.87E2,1.653E3,1.47E2,7.38E2,6.08E2,5.44E2,1.72E2,7.3E2,5.54E2,2.51E2,4.34E2,1.73E2,2.11E2,1.34E2,5.4E1,3.81E2,6.28E2,9.7E1,8.6E1,1.3E1,5.2E1,1.5E1,3E0,1.3E1,1.9E1,3.8E1,8E0,1E0,3E0,1.5E1,1E0,5.1E1,1.864E3,5.68E2,7.24E2,5.2E2,7.6E2,1.181E3,1.78E2,5.1E2,6.14E2,1.464E3,1.45E2,2.182E3,1.12E2,2.259E3,7.13E2,7.82E2,5.6E1,2.176E3,7.3E2,3.12E2,8.07E2,3.74E2,2.83E2,9.7E1,7.7E1,2E0,2.13E2,1.88E2,2.29E2,2.75E2,3.01E2,1.629E3,1.704E3,9.34E2,7.6E2,7.493E3,1.223E3,8.92E2,4.306E3,1.704E3,1.451E3,5.269E3,7.66E2,9.22E2,1.635E3,3.08E2,2.204E3,2.028E3,5.39E2,4.63E2,4.043E3,2.91E2,5.997E3,5.432E3,4.62E2,3.67E2,7.44E2,1.543E3,1.41E2,2E0,5.1E1,1.4E1,1.039E3,1.36E2,6.79E2,3.1E1,9.55E2,1.43E2,4.19E2,7.6E1,7.5E1,2.279E3,3.35E2,6.52E2,6.68E2,9.85E2,5.69E2,1.69E2,4.6E2,1.48E2,4.84E2,6E1,2.18E2,5.12E2,1.29E2,4.25E2,1E0,2.5E2,3.51E2,8.3E1,1.41E2,3.2E1,1.26E2,8.5E1,1.26E2,8E0,1E0,5.3E1,3.3E2,5.1E1,7.6E1,2.1E1,2E0,1.1E1,2E0,1E0,1.2E1,1E0,2E0,1.3E1,1.57E3,2.94E2,9.5E1,4.73E2,3.88E2,3.36E2,1.71E2,3.49E2,5.26E2,2.34E2,5.66E2,6.15E2,1.82E2,3.28E2,1.07E2,5.07E2,1.109E3,3.55E2,1.87E2,1.995E3,1.43E2,2.116E3,4.04E2,3.09E2,2E0,7.8E2,1.01E2,2.075E3,6.42E2,8.8E1,1.46E2,1.66E2,7.3E2,7.7E1,1.72E2,2.02E2,2.55E2,2.8E1,4E1,5.7E1,1.3E1,6.4E1,1.4E2,7.3E1,1.06E2,8.2E1,1.29E2,1E2,1.3E1,2.62E2,1.61E2,1.4E2,1.57E2,1.472E3,6.61E2,1.043E3,3.22E2,6.12E2,3.44E2,4.16E2,3.424E3,4.069E3,3.85E2,8.38E2,2.41E2,6.51E2,4.142E3,1.64E2,1.377E3,3.27E2,5.19E2,9.32E2,4.179E3,1.09E3,5.49E2,2.17E2,7.23E2,1.99E2,4.1E1,1.594E3,1.05E2,2.03E2,8.74E2,1.33E3,8.74E2,1.154E3,2.1E1,5.18E2,3.26E2,1.37E2,1.837E3,2.206E3,1.52E2,1.39E2,2.8E3,3.197E3,3.504E3,1.928E3,3.39E2,1.23E2,2.99E2,6.8E1,4.46E2,2.98E2,8.25E2,7.18E2],"tree_param":{"num_deleted":"0","num_feature":"7","num_nodes":"379","size_leaf_vector":"0"}},{"base_weights":[5.524559E4,3.1753453E4,1.246088E5,1.9180576E4,5.8938215E4,2.0662764E5,1.0098269E5,1.2619243E4,2.8466203E4,8.875151E4,5.3342902E4,1.6222311E5,2.4911452E5,8.148267E4,1.2063285E5,8.942412E3,1.5688147E4,4.2769953E4,2.5467807E4,7.1311266E4,1.0257982E5,4.2231293E4,6.146402E4,1.4922442E5,1.9910192E5,2.339456E5,2.6308588E5,7.651921E4,1.4741811E5,1.1585593E5,2.0777352E5,1.1097207E4,6.6272554E3,2.2683268E4,1.4019559E4,3.502996E4,5.0265008E4,2.1765121E4,2.9709875E4,6.499987E4,7.78824E4,9.2840055E4,1.1083204E5,4.8121734E4,3.811854E4,5.8623473E4,1.0176469E5,1.3953155E5,1.644245E5,8.741627E4,1.996447E5,1.7140466E5,2.3848198E5,1.4781928E5,2.6364778E5,9.8028695E4,6.361693E4,1.5300648E5,9.8242164E4,9.319081E4,1.27902875E5,1.8681195E5,2.2516562E5,3.1010791E4,1.0770501E4,4.906266E3,9.335103E3,1.8786793E4,2.4573125E4,1.2982527E4,1.5787911E4,2.0033004E4,3.6082188E4,2.4385365E4,5.09762E4,1.5283559E4,2.242296E4,2.436049E4,3.1027299E4,1.8864202E5,6.4445258E4,6.3551465E4,8.034029E4,9.8062516E4,8.14097E4,9.7072375E4,1.1393975E5,3.783338E4,1.0868385E5,3.389686E4,4.7759363E4,3.598798E5,5.8314625E4,8.111132E4,1.1750688E5,7.0272516E4,1.408614E5,1.0529847E5,1.6559378E5,2.003078E5,1.20398984E5,2.4360402E5,2.1756573E5,2.638284E5,9.2923805E4,6.406619E4,1.838607E5,5.973568E4,7.995634E4,1.19510266E5,1.5876867E5,1.09979516E5,8.327012E4,1.0647036E5,8.073573E4,2.629367E5,1.0354378E5,1.6611144E5,2.0104986E5,2.0281423E5,2.496223E5,9.775171E4,2.2956467E4,9.009261E3,1.2476136E4,2.955376E3,6.479932E3,4.50486E3,1.086643E4,1.061537E4,1.9151068E4,1.2759853E4,2.5129133E4,1.4601027E4,1.1670622E4,6.5105656E4,1.5718723E4,1.7700582E4,2.2049344E4,-3.699395E4,3.6152656E4,2.6651729E4,1.6977643E4,4.7331645E4,5.5152215E4,1.3798524E4,1.66522E4,2.5466623E4,2.0261055E4,2.2089633E4,2.7012932E4,3.9328875E4,2.7727844E4,1.746325E4,2.6549978E5,3.050147E4,6.5110973E4,3.148898E4,6.535472E4,8.365291E4,6.8717695E4,5.4117883E4,9.954751E4,2.5995244E4,8.170947E4,-2.3508451E4,9.780379E4,1.20554734E5,1.0115624E5,3.399167E4,4.1863133E4,1.403259E5,1.0536779E5,4.1030895E4,3.2633781E4,4.3603293E4,5.891785E4,4.215433E4,5.6467106E5,6.91446E4,5.204217E4,4.4689445E4,8.2835164E4,1.3620436E5,8.889802E4,3.024056E4,7.676688E4,1.4455697E5,1.17376945E5,4.7680188E4,1.6602123E5,2.2479138E5,2.4855334E5,2.4890869E5,2.6729547E5,4.340991E4,6.710649E4,1.9765542E5,8.1561055E4,5.7503867E4,6.3795066E4,7.7064266E4,8.715957E4,1.8650097E5,1.5013653E5,3.1056666E4,1.1138735E5,7.0335016E4,1.3102612E5,7.779513E4,9.58127E4,2.702783E5,2.31678E5,9.442279E4,1.3604298E5,8.580855E4,1.6869828E5,2.2248089E5,1.6074983E5,2.1394692E5,1.7152927E5,3.2949703E5,2.1389502E5,3.7005242E4,1.15905984E5,5.1166562E3,4.0318016E4,8.344187E3,1.1598875E4,1.5155659E4,9.631727E3,2.8473734E2,3.5278655E3,3.6086738E3,6.9181616E3,9.725876E3,3.8842236E3,1.34869E4,1.0013239E4,-8.067383E1,1.0871958E4,1.7798984E4,2.003548E4,1.2819874E4,3.7089688E3,2.3450506E4,2.7023666E4,1.2177879E4,2.1639363E4,9.781053E3,1.478092E4,6.214775E3,1.21924945E5,1.4944373E4,1.9016469E4,3.3745684E4,3.8641797E4,1.1137858E4,4.73997E4,4.8281E4,5.5962094E4,1.4882945E4,1.1172717E4,1.4524801E4,1.7497088E4,2.2404605E4,3.1917281E4,1.7514709E4,2.5674914E4,2.0214096E4,2.3716943E4,2.0391377E4,2.7546434E4,3.2047795E4,6.723486E4,2.49724E4,3.415991E4,6.561571E4,3.0672213E4,6.6790414E4,4.4749465E4,3.2158002E4,8.433545E4,6.922482E4,-2.4076755E3,9.18545E4,1.0584991E5,9.590225E4,1.4235262E5,8.432755E4,1.210704E5,4.0328707E4,1.0164643E5,3.0111195E4,3.8332164E4,3.3860523E4,4.380211E4,3.336754E4,1.4216567E5,6.862473E4,1.06827766E5,3.3971656E4,4.254051E4,2.987334E4,3.5243973E4,3.9043203E4,4.7214547E4,4.405482E4,6.86968E4,1.0682865E6,2.5029069E5,5.2034387E4,1.2942269E5,4.9330758E4,6.3718664E4,5.026381E4,2.2373082E4,9.066473E4,7.2580234E4,4.4053273E4,1.4135575E5,9.374904E4,6.170976E4,8.035377E3,3.378301E4,8.253453E4,3.3062652E4,1.1415664E5,1.4668681E5,6.4374402E4,-1.2012266E3,2.5434152E5,1.920939E5,5.4757387E4,3.7341004E4,6.3792082E4,7.1767516E4,2.9874253E5,1.8576914E5,2.1248773E4,8.192276E4,4.9542613E4,5.8221242E4,5.6023395E4,6.5704586E4,6.591879E4,7.906767E4,7.208852E4,9.112965E4,1.6884772E5,2.467026E5,1.20739234E5,1.5648758E5,9.987453E4,6.3603633E4,1.3954292E5,1.01156516E5,8.0681195E4,6.5300965E4,8.375015E4,1.0116191E5,2.677236E5,3.3250278E5,2.3399261E5,1.0849726E5,9.9198914E4,7.996178E4,1.3871828E5,1.2133126E5,1.622209E5,4.654003E4,3.4527856E5,1.6890855E5,1.8710962E5,2.7965866E5],"categories":[],"categories_nodes":[],"categories_segments":[],"categories_sizes":[],"default_left":[true,true,true,true,true,true,true,true,true,true,true,true,true,true,true,true,true,true,true,true,true,true,true,true,true,true,true,true,true,true,true,true,true,true,true,true,true,true,true,true,true,true,true,true,true,true,true,true,true,false,true,false,true,false,true,true,true,true,true,true,true,true,true,true,true,true,true,true,true,true,true,true,true,true,true,true,true,true,true,true,true,true,true,true,true,true,true,true,true,true,true,true,true,true,true,true,true,false,true,false,false,true,false,true,false,true,true,true,true,false,true,true,false,true,true,true,true,true,true,true,true,true,true,true,true,true,true,true,true,true,true,true,true,true,true,true,true,false,false,false,true,false,false,true,true,true,true,true,true,true,true,true,true,false,false,false,true,false,true,true,true,false,true,false,false,false,true,true,true,true,true,true,true,true,true,true,true,false,true,true,true,true,true,true,true,true,true,true,false,true,false,false,false,true,false,true,true,true,true,true,true,true,true,true,true,false,false,true,true,true,true,true,true,true,true,false,false,false,true,false,false,true,true,false,false,false,false,false,false,false,false,false,false,false,false,false,false,false,false,false,false,false,false,false,false,false,false,false,false,false,false,false,false,false,false,false,false,false,false,false,false,false,false,false,false,false,false,false,false,false,false,false,false,false,false,false,false,false,false,false,false,false,false,false,false,false,false,false,false,false,false,false,false,false,false,false,false,false,false,false,false,false,false,false,false,false,false,false,false,false,false,false,false,false,false,false,false,false,false,false,false,false,false,false,false,false,false,false,false,false,false,false,false,false,false,false,false,false,false,false,false,false,false,false,false,false,false,false,false,false,false,false,false,false,false,false,false,false,false,false,false,false,false,false,false,false,false,false,false,false,false,false,false,false,false],"id":1,"left_children":[1,3,5,7,9,11,13,15,17,19,21,23,25,27,29,31,33,35,37,39,41,43,45,47,49,51,53,55,57,59,61,63,65,67,69,71,73,75,77,79,81,83,85,87,89,91,93,95,97,-1,99,-1,101,-1,103,105,107,109,111,113,115,117,119,121,123,125,127,129,131,133,135,137,139,141,143,145,147,149,151,153,155,157,159,161,163,165,167,169,171,173,175,177,179,181,183,185,187,-1,189,-1,-1,191,-1,193,-1,195,197,199,201,-1,203,205,-1,207,209,211,213,215,217,219,221,223,225,227,229,231,233,235,237,239,241,243,245,247,249,251,253,-1,-1,-1,255,-1,-1,257,259,261,263,265,267,269,271,273,275,-1,-1,-1,277,-1,279,281,283,-1,285,-1,-1,-1,287,289,291,293,295,297,299,301,303,305,307,-1,309,311,313,315,317,319,321,323,325,327,-1,329,-1,-1,-1,331,-1,333,335,337,339,341,343,345,347,349,351,-1,-1,353,355,357,359,361,363,365,367,-1,-1,-1,369,-1,-1,371,373,-1,-1,-1,-1,-1,-1,-1,-1,-1,-1,-1,-1,-1,-1,-1,-1,-1,-1,-1,-1,-1,-1,-1,-1,-1,-1,-1,-1,-1,-1,-1,-1,-1,-1,-1,-1,-1,-1,-1,-1,-1,-1,-1,-1,-1,-1,-1,-1,-1,-1,-1,-1,-1,-1,-1,-1,-1,-1,-1,-1,-1,-1,-1,-1,-1,-1,-1,-1,-1,-1,-1,-1,-1,-1,-1,-1,-1,-1,-1,-1,-1,-1,-1,-1,-1,-1,-1,-1,-1,-1,-1,-1,-1,-1,-1,-1,-1,-1,-1,-1,-1,-1,-1,-1,-1,-1,-1,-1,-1,-1,-1,-1,-1,-1,-1,-1,-1,-1,-1,-1,-1,-1,-1,-1,-1,-1,-1,-1,-1,-1,-1,-1,-1,-1,-1,-1,-1,-1,-1,-1,-1,-1,-1,-1,-1,-1,-1,-1,-1,-1,-1,-1],"loss_changes":[1.5105303E14,2.3667866E13,4.5426024E13,2.8846127E12,3.6483398E12,9.852957E12,6.967846E12,3.1296376E11,8.3973636E11,8.2688816E11,1.661498E12,1.2008502E12,5.0600083E11,2.9809296E12,3.7506221E12,6.2913577E10,1.761972E11,1.9524695E11,2.5396406E11,5.8515784E10,1.4459444E11,1.8688455E11,1.2134289E12,2.572828E11,2.2921871E10,3.2596453E11,5.080141E10,2.3540825E12,1.6057473E11,2.3359924E12,1.2928103E11,4.2201383E10,2.833E10,2.0974273E10,2.2191538E10,2.5693258E10,3.0469521E10,3.6578E10,5.2466024E10,4.1878815E10,2.1171274E10,4.5144867E10,3.3324794E10,1.9891361E12,1.8527761E11,9.050658E11,2.1805977E11,9.767905E10,3.3378271E10,0E0,1.0670309E10,0E0,7.588335E10,0E0,1.7968398E10,9.278547E12,3.325412E11,9.142744E10,2.791768E9,4.8561232E11,1.8432339E13,3.1150047E10,8.712618E10,5.419904E10,1.9215548E10,1.1416789E10,1.7444192E10,2.6393969E9,1.2533498E10,1.6187523E10,1.4365622E10,1.3644595E8,9.386066E9,3.5336806E8,2.2898016E10,1.398227E9,5.1196985E10,8.4201964E9,1.6478739E11,3.483276E10,1.577504E10,4.5331907E9,1.8622972E10,3.4158412E10,2.6101678E9,1.9761857E10,5.892263E10,4.0933523E10,3.3899938E10,2.746876E10,6.217138E10,6.268707E11,6.7190233E11,1.5510405E10,1.9918278E11,3.9180861E9,8.240549E10,0E0,2.8322038E10,0E0,0E0,3.3323745E10,0E0,4.647289E9,0E0,1.4058678E11,1.2581863E12,3.5306602E10,1.4490272E10,0E0,8.810345E10,4.2952294E8,0E0,1.2712023E12,6.108899E10,1.34049956E11,1.3969507E12,5.2586086E9,7.219498E10,1.1016864E10,2.6055226E11,7.841751E9,2.9217747E10,5.3611397E9,2.4746394E10,2.544635E9,2.5683313E9,1.8124636E9,3.878142E9,1.1888947E8,7.351501E8,1.343488E6,5.306843E9,5.849075E10,2.4892015E10,1.9319093E10,1.1219894E10,0E0,0E0,0E0,8.0542433E9,0E0,0E0,1.6937124E9,1.6108749E9,9.442345E8,4.863918E8,6.367648E10,6.794458E10,1.9988808E9,1.8616484E9,3.473248E11,7.6012585E10,0E0,0E0,0E0,1.1372069E10,0E0,1.7652122E8,1.443994E10,5.432869E9,0E0,1.8640536E10,0E0,0E0,0E0,3.036283E9,4.666163E7,4.637065E9,2.2527345E10,1.9169804E10,3.324248E9,1.5414067E10,3.6381E9,1.8552717E10,1.4970126E10,5.162323E10,0E0,6.825788E11,3.7515816E12,1.963448E11,8.65835E8,1.6784425E10,1.0627816E11,1.5185347E10,1.2184474E8,2.3126016E9,4.703073E10,0E0,3.3414758E9,0E0,0E0,0E0,3.5716596E10,0E0,1.8339922E10,2.6165117E10,8.9973273E11,6.3707546E8,1.302646E10,1.8831376E10,1.1199578E10,1.0423239E10,7.631038E10,5.1119653E10,0E0,0E0,1.101689E11,2.041546E11,4.1571844E10,7.529824E9,2.0350763E10,2.3082303E10,2.4879143E11,2.410047E10,0E0,0E0,0E0,3.468165E8,0E0,0E0,2.7846509E10,9.387822E10,0E0,0E0,0E0,0E0,0E0,0E0,0E0,0E0,0E0,0E0,0E0,0E0,0E0,0E0,0E0,0E0,0E0,0E0,0E0,0E0,0E0,0E0,0E0,0E0,0E0,0E0,0E0,0E0,0E0,0E0,0E0,0E0,0E0,0E0,0E0,0E0,0E0,0E0,0E0,0E0,0E0,0E0,0E0,0E0,0E0,0E0,0E0,0E0,0E0,0E0,0E0,0E0,0E0,0E0,0E0,0E0,0E0,0E0,0E0,0E0,0E0,0E0,0E0,0E0,0E0,0E0,0E0,0E0,0E0,0E0,0E0,0E0,0E0,0E0,0E0,0E0,0E0,0E0,0E0,0E0,0E0,0E0,0E0,0E0,0E0,0E0,0E0,0E0,0E0,0E0,0E0,0E0,0E0,0E0,0E0,0E0,0E0,0E0,0E0,0E0,0E0,0E0,0E0,0E0,0E0,0E0,0E0,0E0,0E0,0E0,0E0,0E0,0E0,0E0,0E0,0E0,0E0,0E0,0E0,0E0,0E0,0E0,0E0,0E0,0E0,0E0,0E0,0E0,0E0,0E0,0E0,0E0,0E0,0E0,0E0,0E0,0E0,0E0,0E0,0E0,0E0,0E0,0E0,0E0,0E0,0E0,0E0,0E0,0E0,0E0,0E0,0E0],"parents":[2147483647,0,0,1,1,2,2,3,3,4,4,5,5,6,6,7,7,8,8,9,9,10,10,11,11,12,12,13,13,14,14,15,15,16,16,17,17,18,18,19,19,20,20,21,21,22,22,23,23,24,24,25,25,26,26,27,27,28,28,29,29,30,30,31,31,32,32,33,33,34,34,35,35,36,36,37,37,38,38,39,39,40,40,41,41,42,42,43,43,44,44,45,45,46,46,47,47,48,48,50,50,52,52,54,54,55,55,56,56,57,57,58,58,59,59,60,60,61,61,62,62,63,63,64,64,65,65,66,66,67,67,68,68,69,69,70,70,71,71,72,72,73,73,74,74,75,75,76,76,77,77,78,78,79,79,80,80,81,81,82,82,83,83,84,84,85,85,86,86,87,87,88,88,89,89,90,90,91,91,92,92,93,93,94,94,95,95,96,96,98,98,101,101,103,103,105,105,106,106,107,107,108,108,110,110,111,111,113,113,114,114,115,115,116,116,117,117,118,118,119,119,120,120,121,121,122,122,123,123,124,124,125,125,126,126,127,127,128,128,129,129,130,130,131,131,132,132,133,133,134,134,135,135,136,136,140,140,143,143,144,144,145,145,146,146,147,147,148,148,149,149,150,150,151,151,152,152,156,156,158,158,159,159,160,160,162,162,166,166,167,167,168,168,169,169,170,170,171,171,172,172,173,173,174,174,175,175,176,176,178,178,179,179,180,180,181,181,182,182,183,183,184,184,185,185,186,186,187,187,189,189,193,193,195,195,196,196,197,197,198,198,199,199,200,200,201,201,202,202,203,203,204,204,207,207,208,208,209,209,210,210,211,211,212,212,213,213,214,214,218,218,221,221,222,222],"right_children":[2,4,6,8,10,12,14,16,18,20,22,24,26,28,30,32,34,36,38,40,42,44,46,48,50,52,54,56,58,60,62,64,66,68,70,72,74,76,78,80,82,84,86,88,90,92,94,96,98,-1,100,-1,102,-1,104,106,108,110,112,114,116,118,120,122,124,126,128,130,132,134,136,138,140,142,144,146,148,150,152,154,156,158,160,162,164,166,168,170,172,174,176,178,180,182,184,186,188,-1,190,-1,-1,192,-1,194,-1,196,198,200,202,-1,204,206,-1,208,210,212,214,216,218,220,222,224,226,228,230,232,234,236,238,240,242,244,246,248,250,252,254,-1,-1,-1,256,-1,-1,258,260,262,264,266,268,270,272,274,276,-1,-1,-1,278,-1,280,282,284,-1,286,-1,-1,-1,288,290,292,294,296,298,300,302,304,306,308,-1,310,312,314,316,318,320,322,324,326,328,-1,330,-1,-1,-1,332,-1,334,336,338,340,342,344,346,348,350,352,-1,-1,354,356,358,360,362,364,366,368,-1,-1,-1,370,-1,-1,372,374,-1,-1,-1,-1,-1,-1,-1,-1,-1,-1,-1,-1,-1,-1,-1,-1,-1,-1,-1,-1,-1,-1,-1,-1,-1,-1,-1,-1,-1,-1,-1,-1,-1,-1,-1,-1,-1,-1,-1,-1,-1,-1,-1,-1,-1,-1,-1,-1,-1,-1,-1,-1,-1,-1,-1,-1,-1,-1,-1,-1,-1,-1,-1,-1,-1,-1,-1,-1,-1,-1,-1,-1,-1,-1,-1,-1,-1,-1,-1,-1,-1,-1,-1,-1,-1,-1,-1,-1,-1,-1,-1,-1,-1,-1,-1,-1,-1,-1,-1,-1,-1,-1,-1,-1,-1,-1,-1,-1,-1,-1,-1,-1,-1,-1,-1,-1,-1,-1,-1,-1,-1,-1,-1,-1,-1,-1,-1,-1,-1,-1,-1,-1,-1,-1,-1,-1,-1,-1,-1,-1,-1,-1,-1,-1,-1,-1,-1,-1,-1,-1,-1,-1],"split_conditions":[2.0175E3,2.0135E3,4.5E0,2.0095E3,4.5E0,2.0205E3,2.0195E3,2.0065E3,3.5E0,2.0155E3,2.0155E3,2.0195E3,2.5E0,2.25E1,2.25E1,1.25E1,3.5E0,2.0115E3,2.0115E3,2.0145E3,2.0165E3,1.25E1,2.25E1,2.0185E3,1.5E0,1.5E0,5E-1,1.35E1,1.435795E5,1.15E1,2.0205E3,8.604E4,2.05E1,2.0075E3,2.0085E3,1.5E0,1.5E0,6.5E0,7.5E0,1.9723E4,8.54655E4,1.5855E5,5.685E4,1.15E1,2.05E1,3.75E3,2.0165E3,1.5E0,1.5E0,1.7483256E4,9.06895E4,3.4280934E4,5.3445E3,2.9563857E4,3.125E4,1.15E1,2.15E1,3.50455E4,1.67978E5,8.5E0,1.25E1,2.2025E4,8.5E0,1.9975E3,2.0045E3,2.0045E3,2.0025E3,1.5E0,1.5E0,1.55E1,3.84E4,2.0105E3,2.7E4,1.82E5,2.0125E3,2.0105E3,1.55E1,2.0125E3,1.25E1,2.5E0,1.5E0,2.985E4,1.9995E5,1.5E0,1.5E0,1.1435E3,1.33512E5,2.0145E3,5.30155E4,1.55E1,2.25E1,2.65E2,1.35E1,6.3111E4,1.245E5,2.93995E4,1.3795E5,2.1059693E4,3.7525E3,4.006156E4,2.4079797E4,4.5E0,4.351315E4,4.5E0,1.8584762E4,6.5E0,1.25E1,2.0185E3,2.0185E3,2.3902053E4,5.05415E4,1.443045E5,1.6654023E4,6.5E0,1.05E1,2.01885E4,2.15E1,2.0895E3,3.83385E4,2.0215E3,1.1E1,1.9945E3,1.15E1,1.15E1,3.5E0,1.5435E5,1.460065E5,2.15E1,2.15E1,1.27985E5,2.1925E5,3.1655E5,2.0085E3,1.15E1,2.05E1,3.03965E4,2.05E1,3.5401165E3,4.4098687E3,-7.39879E3,2.0105E3,5.3303457E3,3.3955286E3,2.525E4,1.1615E5,5.5E0,1.44335E5,1.15E1,2.05E1,6.5E0,4.5E0,1.15E1,2.05E1,3.4926501E3,5.3099957E4,6.1002944E3,3.5E0,6.2977964E3,8.271E4,1.5E0,3.415E5,1.0823577E4,9.298E4,5.199049E3,1.6341894E4,-4.7016904E3,3.5E0,1.5E0,1.5E0,7.5E0,6.5E0,1.16865E4,6.34E4,6.7618E4,2.0145E3,2.0145E3,2.0145E3,8.430866E3,4.59E2,1.15E1,2.15E1,5.875E4,1.380025E5,4.33195E4,1.8935E5,1.945E4,9.5098E4,2.4663E4,2.3475389E4,2.5E0,3.3204246E4,4.4958277E4,4.9710668E4,1.5E0,5.3459094E4,5.5E0,2.0185E3,1.67525E4,4.293E3,2.8854E4,2.31515E4,4.57595E4,2.75E4,5.0183E4,6.24965E4,6.2113335E3,2.227747E4,5.5E0,5.5E2,1.3025E4,2.0205E3,1.88615E4,8.39275E4,5.1805E3,3.915E2,1.7161709E4,3.3739656E4,4.449618E4,1.723085E5,4.2789387E4,3.4305855E4,2.0215E3,2.54505E4,7.4010483E3,2.3181197E4,1.02333124E3,8.063603E3,1.6688373E3,2.3197751E3,3.0311318E3,1.9263453E3,5.6947468E1,7.055731E2,7.217348E2,1.3836323E3,1.9451752E3,7.768447E2,2.6973801E3,2.0026478E3,-1.6134766E1,2.1743916E3,3.5597969E3,4.0070962E3,2.5639749E3,7.4179376E2,4.690101E3,5.4047334E3,2.435576E3,4.3278726E3,1.9562106E3,2.956184E3,1.242955E3,2.438499E4,2.9888748E3,3.8032937E3,6.7491367E3,7.7283594E3,2.2275718E3,9.47994E3,9.6562E3,1.1192419E4,2.976589E3,2.2345435E3,2.9049602E3,3.4994177E3,4.4809214E3,6.3834565E3,3.502942E3,5.134983E3,4.042819E3,4.7433887E3,4.0782754E3,5.5092866E3,6.409559E3,1.3446972E4,4.99448E3,6.831982E3,1.3123143E4,6.134443E3,1.3358083E4,8.949894E3,6.4316006E3,1.6867092E4,1.3844964E4,-4.8153513E2,1.83709E4,2.1169982E4,1.9180451E4,2.8470525E4,1.686551E4,2.421408E4,8.0657417E3,2.0329287E4,6.0222393E3,7.666433E3,6.772105E3,8.760422E3,6.673508E3,2.8433135E4,1.3724945E4,2.1365553E4,6.7943315E3,8.508103E3,5.974668E3,7.0487944E3,7.8086406E3,9.442909E3,8.810964E3,1.3739359E4,2.136573E5,5.0058137E4,1.0406878E4,2.5884537E4,9.866151E3,1.2743733E4,1.0052762E4,4.4746167E3,1.8132945E4,1.4516047E4,8.810655E3,2.827115E4,1.8749809E4,1.2341952E4,1.6070754E3,6.7566025E3,1.6506906E4,6.612531E3,2.2831328E4,2.9337363E4,1.2874881E4,-2.4024532E2,5.0868305E4,3.841878E4,1.0951478E4,7.4682007E3,1.2758417E4,1.4353503E4,5.9748508E4,3.715383E4,4.249755E3,1.6384553E4,9.908522E3,1.1644249E4,1.1204679E4,1.3140917E4,1.3183758E4,1.5813534E4,1.4417705E4,1.822593E4,3.3769543E4,4.934052E4,2.4147848E4,3.1297516E4,1.9974906E4,1.2720727E4,2.7908584E4,2.0231303E4,1.6136239E4,1.3060193E4,1.675003E4,2.023238E4,5.354472E4,6.6500555E4,4.6798523E4,2.1699451E4,1.9839783E4,1.5992356E4,2.7743656E4,2.4266252E4,3.2444182E4,9.308007E3,6.905571E4,3.378171E4,3.7421926E4,5.593173E4],"split_indices":[2,2,0,2,0,2,2,2,0,2,2,2,0,0,0,0,0,2,2,2,2,0,0,2,0,0,3,0,3,0,2,3,0,2,2,0,0,0,0,3,3,3,3,0,0,3,2,0,0,0,3,0,3,0,3,0,0,3,3,0,0,3,3,2,2,2,2,0,0,0,3,2,3,3,2,2,0,2,0,0,0,3,3,0,0,3,3,2,3,0,0,3,0,3,3,3,3,0,3,0,0,3,0,3,0,0,0,2,2,0,3,3,0,0,0,3,0,3,3,2,3,2,0,0,0,3,3,0,0,3,3,3,2,0,0,3,0,0,0,0,2,0,0,3,3,0,3,0,0,0,0,0,0,0,0,0,0,0,3,0,3,0,3,0,0,0,0,0,0,0,0,3,3,3,2,2,2,0,3,0,0,3,3,3,3,3,3,3,0,0,0,0,0,3,0,0,2,3,3,3,3,3,3,3,3,0,0,0,3,3,2,3,3,3,3,0,0,0,3,0,0,2,3,0,0,0,0,0,0,0,0,0,0,0,0,0,0,0,0,0,0,0,0,0,0,0,0,0,0,0,0,0,0,0,0,0,0,0,0,0,0,0,0,0,0,0,0,0,0,0,0,0,0,0,0,0,0,0,0,0,0,0,0,0,0,0,0,0,0,0,0,0,0,0,0,0,0,0,0,0,0,0,0,0,0,0,0,0,0,0,0,0,0,0,0,0,0,0,0,0,0,0,0,0,0,0,0,0,0,0,0,0,0,0,0,0,0,0,0,0,0,0,0,0,0,0,0,0,0,0,0,0,0,0,0,0,0,0,0,0,0,0,0,0,0,0,0,0,0,0,0,0,0,0,0],"split_type":[0,0,0,0,0,0,0,0,0,0,0,0,0,0,0,0,0,0,0,0,0,0,0,0,0,0,0,0,0,0,0,0,0,0,0,0,0,0,0,0,0,0,0,0,0,0,0,0,0,0,0,0,0,0,0,0,0,0,0,0,0,0,0,0,0,0,0,0,0,0,0,0,0,0,0,0,0,0,0,0,0,0,0,0,0,0,0,0,0,0,0,0,0,0,0,0,0,0,0,0,0,0,0,0,0,0,0,0,0,0,0,0,0,0,0,0,0,0,0,0,0,0,0,0,0,0,0,0,0,0,0,0,0,0,0,0,0,0,0,0,0,0,0,0,0,0,0,0,0,0,0,0,0,0,0,0,0,0,0,0,0,0,0,0,0,0,0,0,0,0,0,0,0,0,0,0,0,0,0,0,0,0,0,0,0,0,0,0,0,0,0,0,0,0,0,0,0,0,0,0,0,0,0,0,0,0,0,0,0,0,0,0,0,0,0,0,0,0,0,0,0,0,0,0,0,0,0,0,0,0,0,0,0,0,0,0,0,0,0,0,0,0,0,0,0,0,0,0,0,0,0,0,0,0,0,0,0,0,0,0,0,0,0,0,0,0,0,0,0,0,0,0,0,0,0,0,0,0,0,0,0,0,0,0,0,0,0,0,0,0,0,0,0,0,0,0,0,0,0,0,0,0,0,0,0,0,0,0,0,0,0,0,0,0,0,0,0,0,0,0,0,0,0,0,0,0,0,0,0,0,0,0,0,0,0,0,0,0,0,0,0,0,0,0,0,0,0,0,0,0,0,0,0,0,0,0,0,0,0,0,0,0,0,0,0,0,0,0,0,0,0,0,0,0,0],"sum_hessian":[9.2701E4,6.9249E4,2.3452E4,4.7351E4,2.1898E4,5.243E3,1.8209E4,2.7747E4,1.9604E4,3.458E3,1.844E4,2.566E3,2.677E3,9.142E3,9.067E3,1.2625E4,1.5122E4,3.395E3,1.6209E4,1.532E3,1.926E3,7.789E3,1.0651E4,1.901E3,6.65E2,1.292E3,1.385E3,8.504E3,6.38E2,8.598E3,4.69E2,6.537E3,6.088E3,2.91E3,1.2212E4,1.673E3,1.722E3,8.658E3,7.551E3,7.87E2,7.45E2,8.89E2,1.037E3,3.198E3,4.591E3,9.952E3,6.99E2,1.167E3,7.34E2,4E0,6.61E2,9E1,1.202E3,8E0,1.377E3,3.186E3,5.318E3,5.71E2,6.7E1,2.987E3,5.611E3,2.18E2,2.51E2,1.04E2,6.433E3,3.724E3,2.364E3,9.54E2,1.956E3,7.703E3,4.509E3,1.11E2,1.562E3,4.7E1,1.675E3,8E2,7.858E3,1.496E3,6.055E3,2E0,7.85E2,1.13E2,6.32E2,6.05E2,2.84E2,1.97E2,8.4E2,2.735E3,4.63E2,3.196E3,1.395E3,9E0,9.943E3,3.05E2,3.94E2,2.3E1,1.144E3,1.6E1,7.18E2,6.54E2,7E0,9.57E2,2.45E2,1.375E3,2E0,2.284E3,9.02E2,4.301E3,1.017E3,8.7E1,4.84E2,3.4E1,3.3E1,1.442E3,1.545E3,8.56E2,4.755E3,9.4E1,1.24E2,1.36E2,1.15E2,1E1,9.4E1,3.168E3,3.265E3,1.664E3,2.06E3,5.7E2,1.794E3,4.2E1,9.12E2,8.9E1,1.867E3,3.444E3,4.259E3,5E0,4.504E3,5.6E1,5.5E1,1E0,1.561E3,3.4E1,1.3E1,9.01E2,7.74E2,3.89E2,4.11E2,3.259E3,4.599E3,8.11E2,6.85E2,1.719E3,4.336E3,1E0,1E0,1.6E1,7.69E2,7E0,1.06E2,4.87E2,1.45E2,2.1E1,5.84E2,2E0,2.82E2,1E0,1.96E2,5.48E2,2.92E2,1.405E3,1.33E3,4E1,4.23E2,4.76E2,2.72E3,1.02E3,3.75E2,4E0,5E0,3.643E3,6.3E3,1.5E1,2.9E2,2.36E2,1.58E2,4E0,1.9E1,9.84E2,1.6E2,3E0,7.15E2,2.09E2,7.48E2,2.73E2,1.102E3,2.95E2,1.989E3,7.94E2,1.08E2,2.785E3,1.516E3,7.34E2,2.83E2,1.1E2,3.74E2,1E0,3.3E1,5.85E2,8.57E2,1.298E3,2.47E2,6.87E2,1.69E2,3.716E3,1.039E3,4E0,9E1,7.8E1,4.6E1,9.6E1,4E1,3.3E1,8.2E1,3E0,7E0,4.7E1,4.7E1,2.524E3,6.44E2,1.679E3,1.586E3,2.94E2,1.37E3,2.74E2,1.786E3,5.9E1,5.11E2,4.37E2,1.357E3,1E0,4.1E1,3.69E2,5.43E2,8.8E1,1E0,9.97E2,8.7E2,2.564E3,8.8E2,2.652E3,1.607E3,3E0,2E0,3.652E3,8.52E2,8.01E2,7.6E2,2E0,8.99E2,8.8E1,6.86E2,2.72E2,1.17E2,1.22E2,2.89E2,2.213E3,1.046E3,3.054E3,1.545E3,3.83E2,4.28E2,5.4E1,6.31E2,1.365E3,3.54E2,3.039E3,1.297E3,7.57E2,1.2E1,9.7E1,9E0,7E0,4.8E2,1.44E2,1E0,2.7E2,3.14E2,1.91E2,5E0,1E1,5.38E2,3E0,2.89E2,7.46E2,6.59E2,2.63E2,1.067E3,1E0,3.9E1,1.8E1,4.05E2,8.8E1,3.88E2,1.328E3,1.392E3,4.56E2,5.64E2,1.51E2,2.24E2,1E0,4E0,2.839E3,8.04E2,5.117E3,1.183E3,1.1E1,4E0,1.6E2,1.3E2,1.3E1,2.23E2,1.32E2,2.6E1,1E0,3E0,1.6E1,3E0,6.8E1,9.16E2,2E0,1E0,2.46E2,2.7E1,1E2,1.95E2,1.171E3,8.18E2,8.1E1,7.13E2,1E0,1.07E2,2.36E2,2.549E3,3.05E2,1.211E3,1.17E2,6.17E2,6.3E1,2.2E2,8.8E1,2.2E1,7E1,3.04E2,1.06E2,4.79E2,6.64E2,1.93E2,1.05E3,2.48E2,8.1E1,1.66E2,6.65E2,2.2E1,1.65E2,4E0,2.789E3,9.27E2,8.72E2,1.67E2,4.5E1,1E0,2.9E1,4E0,6.1E1,2.1E1],"tree_param":{"num_deleted":"0","num_feature":"7","num_nodes":"375","size_leaf_vector":"0"}},{"base_weights":[4.4230348E4,2.5420223E4,9.9769375E4,1.5350028E4,4.7193746E4,1.6542016E5,8.08582E4,1.009994E4,2.2779975E4,7.109706E4,4.2707613E4,1.2987808E5,1.994273E5,6.523844E4,9.6598234E4,7.158595E3,1.2554964E4,3.4232543E4,2.0379254E4,5.7145043E4,8.215951E4,3.7270074E4,5.392341E4,1.1947103E5,1.594041E5,1.8728986E5,2.1060642E5,6.1247188E4,1.18259375E5,1.3739564E5,8.699549E4,8.885201E3,5.303494E3,1.8154559E4,1.1219258E4,2.8032947E4,4.0235965E4,1.8692537E4,2.6415252E4,5.2103895E4,6.239341E4,7.4352836E4,8.877394E4,3.003114E4,4.043494E4,5.108705E4,9.417809E4,1.1171695E5,1.3163061E5,1.5502333E5,2.0714722E5,2.1176342E5,1.5446831E5,1.9683252E5,2.2233023E5,7.8474125E4,5.091376E4,1.0630557E5,1.3359606E5,1.5634262E5,1.1786624E5,8.251471E4,1.6820627E5,8.0909604E3,1.2658939E4,3.925783E3,7.47122E3,1.5039617E4,1.9665348E4,9.406953E3,1.1969411E4,1.6097386E4,2.887028E4,1.969008E4,4.0800383E4,1.5919618E4,2.0094242E4,2.1624322E4,2.7557967E4,2.4760018E4,5.2638535E4,2.374387E4,6.2886277E4,6.826649E4,8.0073516E4,5.9988465E4,8.9425125E4,3.4169508E4,2.6942604E4,3.90922E4,6.0910168E4,6.2367297E4,4.5375926E4,8.844925E4,1.8299038E5,5.752981E4,1.1275518E5,1.4202083E5,1.20472836E5,7.342967E4,1.5543798E5,2.0003128E5,2.783487E5,1.4685206E5,2.1984814E5,2.030927E5,1.0432121E5,5.127288E4,1.4721872E5,4.779921E4,6.4025625E4,1.1007154E5,1.970793E5,7.836364E4,1.5089997E5,6.891813E4,9.049132E4,1.11625266E5,2.205086E5,9.976312E3,4.275688E3,8.64301E3,1.4841154E4,2.3647588E3,5.1849673E3,3.608655E3,8.695763E3,8.542488E3,1.5329143E4,1.0244612E4,2.010871E4,1.1260734E4,8.244493E3,1.1382707E4,1.4414634E4,1.2503335E4,1.7920422E4,2.6888408E4,3.0923594E4,1.3061282E4,2.2903896E4,3.7878293E4,4.4148676E4,1.2720586E4,1.6706287E4,1.9283332E4,2.5315004E4,1.9616223E4,2.318037E4,3.398232E4,2.475021E4,5.3041875E4,2.500965E4,6.678439E4,5.911913E4,6.727078E4,1.5948284E5,8.947502E4,1.9463723E4,2.7203074E4,8.109563E4,2.4836645E4,3.2315592E4,4.6565523E4,3.4071668E4,5.50185E4,6.5043227E4,4.4338266E4,1.3309667E5,4.3165777E4,5.49231E4,9.3238664E4,6.81761E4,3.433236E4,6.506215E4,1.1788013E5,1.0489543E5,1.6019416E5,1.3088662E5,1.03816336E5,1.3459331E5,1.6069469E5,1.4711694E5,1.4263131E5,1.6055823E5,3.4790156E4,5.3698816E4,1.5824622E5,6.543815E4,4.882438E4,2.6858367E4,6.919351E4,5.9117703E4,7.5118266E4,1.2456698E5,6.2624258E4,8.843559E4,1.3395242E5,1.5773616E5,5.122027E4,7.2768195E4,2.2584867E5,7.70686E4,1.8131119E5,2.4395397E5,6.8877056E3,1.1910889E4,2.753077E3,6.6239136E3,6.753174E3,1.3188736E4,2.7747525E4,1.3775431E4,-1.1257914E2,2.8873337E3,4.109219E3,5.9246484E3,6.5048794E3,2.4356416E3,1.0315163E4,7.6166064E3,9.175422E3,6.3760684E3,1.8765105E4,2.1625139E4,8.769798E3,2.2400271E4,7.224977E3,1.004232E4,1.2783449E4,9.556921E3,1.3554652E4,1.5217456E4,2.8459256E4,2.3734531E4,4.610815E4,4.208578E4,1.1052182E4,1.4119615E4,2.050243E4,1.4755473E4,2.1972904E4,1.5898324E4,2.3337758E4,3.052667E4,2.1786219E4,1.7023684E4,2.753411E4,5.209238E4,2.3791588E4,3.5784652E4,8.042577E3,2.9295516E4,5.9557066E4,4.0616543E4,4.295358E4,6.852404E4,2.409702E4,3.0677346E4,6.575945E4,9.416096E4,2.9988146E4,2.3903166E4,3.416872E4,2.9977854E4,3.608264E4,9.3792734E4,3.1320785E4,4.1326008E4,6.058138E4,3.7956742E4,5.9753824E4,7.342754E4,2.7960912E4,4.7283527E4,1.0943508E5,1.5186616E5,4.3769383E4,2.5350467E4,5.7759195E4,5.18456E4,1.23607875E5,1.11739516E5,9.450595E4,1.13211305E5,6.914815E4,1.359734E5,1.3806705E5,1.5831998E5,4.391434E4,2.9910908E4,5.104455E4,5.7431535E4,1.3868055E5,1.8210598E5,4.7813777E4,6.55439E4,2.4928924E4,3.540744E4,5.5382203E4,6.681492E4,6.065797E4,8.356408E4,1.3913378E5,8.673693E4,6.850749E4,5.79022E4,9.3715414E4,7.813689E4,1.04477836E5,1.8036394E5,8.054957E4,4.4141734E4,9.384014E4,6.333399E4,2.0472169E5,2.3794797E5,7.281264E4,1.0030607E5],"categories":[],"categories_nodes":[],"categories_segments":[],"categories_sizes":[],"default_left":[true,true,true,true,true,true,true,true,true,true,true,true,true,true,true,true,true,true,true,true,true,true,true,true,true,true,true,true,true,true,true,true,true,true,true,true,true,true,true,true,true,true,true,true,true,true,true,true,true,true,false,true,true,true,false,true,true,false,false,true,true,true,true,true,true,true,true,true,true,true,true,true,true,true,true,true,true,true,true,false,true,false,true,true,false,false,true,true,true,true,true,true,true,true,false,true,true,true,true,false,true,false,false,true,false,false,false,true,true,true,true,true,false,true,true,true,true,false,true,true,true,true,true,true,true,true,true,true,false,false,true,true,true,true,true,false,false,true,false,false,false,false,true,true,true,true,true,true,false,true,true,false,true,false,true,true,false,false,false,true,true,true,true,true,true,true,true,true,true,true,true,false,false,false,false,true,true,false,false,false,true,false,true,false,false,true,true,true,false,true,true,false,true,true,true,true,true,true,false,true,true,true,true,false,false,false,false,false,false,false,false,false,false,false,false,false,false,false,false,false,false,false,false,false,false,false,false,false,false,false,false,false,false,false,false,false,false,false,false,false,false,false,false,false,false,false,false,false,false,false,false,false,false,false,false,false,false,false,false,false,false,false,false,false,false,false,false,false,false,false,false,false,false,false,false,false,false,false,false,false,false,false,false,false,false,false,false,false,false,false,false,false,false,false,false,false,false,false,false,false,false,false,false,false,false,false,false,false,false,false,false,false,false,false,false,false,false,false,false],"id":2,"left_children":[1,3,5,7,9,11,13,15,17,19,21,23,25,27,29,31,33,35,37,39,41,43,45,47,49,51,53,55,57,59,61,63,65,67,69,71,73,75,77,79,81,83,85,87,89,91,93,95,97,99,-1,101,103,105,-1,107,109,-1,-1,111,113,115,117,119,121,123,125,127,129,131,133,135,137,139,141,143,145,147,149,-1,151,-1,153,155,-1,-1,157,159,161,163,165,167,169,171,-1,173,175,177,179,-1,181,-1,-1,183,-1,-1,-1,185,187,189,191,193,-1,195,197,199,201,-1,203,205,207,209,211,213,215,217,219,221,-1,-1,223,225,227,229,231,-1,-1,233,-1,-1,-1,-1,235,237,239,241,243,245,-1,247,249,-1,251,-1,253,255,-1,-1,-1,257,259,261,263,265,267,269,271,273,275,277,279,-1,-1,-1,-1,281,283,-1,-1,-1,285,-1,287,-1,-1,289,291,293,-1,295,297,-1,299,301,303,305,307,309,-1,311,313,315,317,-1,-1,-1,-1,-1,-1,-1,-1,-1,-1,-1,-1,-1,-1,-1,-1,-1,-1,-1,-1,-1,-1,-1,-1,-1,-1,-1,-1,-1,-1,-1,-1,-1,-1,-1,-1,-1,-1,-1,-1,-1,-1,-1,-1,-1,-1,-1,-1,-1,-1,-1,-1,-1,-1,-1,-1,-1,-1,-1,-1,-1,-1,-1,-1,-1,-1,-1,-1,-1,-1,-1,-1,-1,-1,-1,-1,-1,-1,-1,-1,-1,-1,-1,-1,-1,-1,-1,-1,-1,-1,-1,-1,-1,-1,-1,-1,-1,-1,-1,-1,-1,-1,-1,-1,-1,-1,-1,-1,-1,-1,-1,-1,-1,-1,-1,-1],"loss_changes":[9.684287E13,1.518328E13,2.910431E13,1.8468716E12,2.345266E12,6.3124443E12,4.4707254E12,2.0028038E11,5.3833053E11,5.2917856E11,1.122639E12,7.6974286E11,3.239261E11,1.9275973E12,3.5405966E12,4.0394293E10,1.1290752E11,1.2526682E11,1.6454045E11,3.730886E10,9.290383E10,2.833997E11,6.824185E11,1.6462853E11,1.07181244E11,1.00590315E12,1.8004889E11,1.5100082E12,1.02947095E11,6.202327E11,2.6581485E12,1.9493683E10,1.815547E10,1.3403423E10,1.6491086E10,1.626538E10,1.9177406E10,4.8937566E10,1.8773443E10,1.0216669E10,1.2717654E10,2.5521816E10,1.4092337E10,4.743181E10,2.3518511E11,3.5954832E11,1.847874E11,5.9223572E10,6.809977E10,9.360638E9,0E0,5.208361E11,2.4457406E11,3.52936E11,0E0,5.951946E12,2.1415487E11,0E0,0E0,1.62385E12,1.1025756E12,7.487168E11,1.1088041E12,3.8829E10,9.81844E9,7.309664E9,1.1154768E10,1.6654828E9,7.9680635E9,7.6218696E9,1.2222333E10,5.0976973E8,5.52901E9,7.234232E8,1.4725677E10,1.0508108E10,3.5133063E10,1.68883E9,5.062145E10,0E0,7.276462E9,0E0,6.859522E9,2.9052633E10,0E0,0E0,1.7951621E9,5.2509606E11,2.376296E10,3.0277527E11,9.327215E9,2.4016422E12,7.650358E10,2.986056E10,0E0,1.9598131E9,3.3755759E10,5.4912877E10,7.0933545E10,0E0,3.0408704E9,0E0,0E0,6.0827894E9,0E0,0E0,0E0,8.949963E10,8.0400194E11,9.104366E10,2.172964E10,1.9888184E11,0E0,5.644537E10,3.262749E10,1.7193291E11,7.9477237E12,0E0,1.3772941E11,2.1524087E10,6.3782134E9,3.3643848E9,9.713664E9,2.1558252E9,1.615614E9,1.9240202E9,3.058352E9,4.58496E5,0E0,0E0,3.4002043E9,3.801237E10,3.967189E9,1.7698193E10,9.446359E8,0E0,0E0,3.3027523E9,0E0,0E0,0E0,0E0,1.1922309E9,1.8163057E9,2.4994906E10,6.599318E10,1.0911351E10,1.350615E9,0E0,9.957815E10,2.0187972E10,0E0,7.097298E8,0E0,6.84458E8,1.0313531E10,0E0,0E0,0E0,1.4433321E10,3.5485385E10,6.804144E9,1.6096297E9,1.6090829E12,9.561126E10,1.9055837E10,9.182904E9,7.132073E10,1.5347692E11,3.1581012E10,3.1064064E9,0E0,0E0,0E0,0E0,1.0281288E10,2.9129966E10,0E0,0E0,0E0,7.939031E9,0E0,3.2846643E9,0E0,0E0,1.1864179E10,1.678508E10,3.458791E11,0E0,6.6143126E10,2.4658084E9,0E0,1.1509957E10,9.953018E9,1.4718861E11,3.6713267E8,5.5098737E9,1.7267058E11,0E0,9.277473E10,4.1451363E11,5.2256834E10,3.8729993E11,0E0,0E0,0E0,0E0,0E0,0E0,0E0,0E0,0E0,0E0,0E0,0E0,0E0,0E0,0E0,0E0,0E0,0E0,0E0,0E0,0E0,0E0,0E0,0E0,0E0,0E0,0E0,0E0,0E0,0E0,0E0,0E0,0E0,0E0,0E0,0E0,0E0,0E0,0E0,0E0,0E0,0E0,0E0,0E0,0E0,0E0,0E0,0E0,0E0,0E0,0E0,0E0,0E0,0E0,0E0,0E0,0E0,0E0,0E0,0E0,0E0,0E0,0E0,0E0,0E0,0E0,0E0,0E0,0E0,0E0,0E0,0E0,0E0,0E0,0E0,0E0,0E0,0E0,0E0,0E0,0E0,0E0,0E0,0E0,0E0,0E0,0E0,0E0,0E0,0E0,0E0,0E0,0E0,0E0,0E0,0E0,0E0,0E0,0E0,0E0,0E0,0E0,0E0,0E0,0E0,0E0,0E0,0E0,0E0,0E0,0E0,0E0,0E0,0E0,0E0,0E0],"parents":[2147483647,0,0,1,1,2,2,3,3,4,4,5,5,6,6,7,7,8,8,9,9,10,10,11,11,12,12,13,13,14,14,15,15,16,16,17,17,18,18,19,19,20,20,21,21,22,22,23,23,24,24,25,25,26,26,27,27,28,28,29,29,30,30,31,31,32,32,33,33,34,34,35,35,36,36,37,37,38,38,39,39,40,40,41,41,42,42,43,43,44,44,45,45,46,46,47,47,48,48,49,49,51,51,52,52,53,53,55,55,56,56,59,59,60,60,61,61,62,62,63,63,64,64,65,65,66,66,67,67,68,68,69,69,70,70,71,71,72,72,73,73,74,74,75,75,76,76,77,77,78,78,80,80,82,82,83,83,86,86,87,87,88,88,89,89,90,90,91,91,92,92,93,93,95,95,96,96,97,97,98,98,100,100,103,103,107,107,108,108,109,109,110,110,111,111,113,113,114,114,115,115,116,116,118,118,119,119,120,120,121,121,122,122,123,123,124,124,125,125,126,126,127,127,130,130,131,131,132,132,133,133,134,134,137,137,142,142,143,143,144,144,145,145,146,146,147,147,149,149,150,150,152,152,154,154,155,155,159,159,160,160,161,161,162,162,163,163,164,164,165,165,166,166,167,167,168,168,169,169,170,170,175,175,176,176,180,180,182,182,185,185,186,186,187,187,189,189,190,190,192,192,193,193,194,194,195,195,196,196,197,197,199,199,200,200,201,201,202,202],"right_children":[2,4,6,8,10,12,14,16,18,20,22,24,26,28,30,32,34,36,38,40,42,44,46,48,50,52,54,56,58,60,62,64,66,68,70,72,74,76,78,80,82,84,86,88,90,92,94,96,98,100,-1,102,104,106,-1,108,110,-1,-1,112,114,116,118,120,122,124,126,128,130,132,134,136,138,140,142,144,146,148,150,-1,152,-1,154,156,-1,-1,158,160,162,164,166,168,170,172,-1,174,176,178,180,-1,182,-1,-1,184,-1,-1,-1,186,188,190,192,194,-1,196,198,200,202,-1,204,206,208,210,212,214,216,218,220,222,-1,-1,224,226,228,230,232,-1,-1,234,-1,-1,-1,-1,236,238,240,242,244,246,-1,248,250,-1,252,-1,254,256,-1,-1,-1,258,260,262,264,266,268,270,272,274,276,278,280,-1,-1,-1,-1,282,284,-1,-1,-1,286,-1,288,-1,-1,290,292,294,-1,296,298,-1,300,302,304,306,308,310,-1,312,314,316,318,-1,-1,-1,-1,-1,-1,-1,-1,-1,-1,-1,-1,-1,-1,-1,-1,-1,-1,-1,-1,-1,-1,-1,-1,-1,-1,-1,-1,-1,-1,-1,-1,-1,-1,-1,-1,-1,-1,-1,-1,-1,-1,-1,-1,-1,-1,-1,-1,-1,-1,-1,-1,-1,-1,-1,-1,-1,-1,-1,-1,-1,-1,-1,-1,-1,-1,-1,-1,-1,-1,-1,-1,-1,-1,-1,-1,-1,-1,-1,-1,-1,-1,-1,-1,-1,-1,-1,-1,-1,-1,-1,-1,-1,-1,-1,-1,-1,-1,-1,-1,-1,-1,-1,-1,-1,-1,-1,-1,-1,-1,-1,-1,-1,-1,-1,-1],"split_conditions":[2.0175E3,2.0135E3,4.5E0,2.0095E3,4.5E0,2.0205E3,2.0195E3,2.0065E3,3.5E0,2.0155E3,2.0165E3,2.0195E3,2.5E0,2.25E1,1.5E0,1.25E1,3.5E0,2.0115E3,2.0125E3,2.0145E3,2.0165E3,2.0145E3,2.25E1,2.0185E3,2.5E0,1.5E0,1.5E0,1.35E1,2.0185E3,1.25E1,2.25E1,1.15E1,2.05E1,2.0075E3,2.0075E3,1.5E0,1.5E0,2.0105E3,7.5E0,1.5E0,1.5E0,2.5E0,1.5E0,1.25E1,2.25E1,1.25E1,2.5E0,1.5E0,5E-1,1.5E0,4.1429445E4,5E-1,2.5E0,5E-1,4.4466047E4,1.15E1,2.15E1,2.1261115E4,2.6719213E4,1.15E1,1.95E1,1.15E1,2.5E0,3.5E0,1E0,2.0045E3,2.0025E3,1.5E0,1.5E0,1.25E1,2.05E1,1E0,2.0105E3,1E0,2.0125E3,7.5E0,2.15E1,6.5E0,1.45E1,4.9520034E3,3.5E0,4.748774E3,2.5E0,2.5E0,1.6014703E4,1.1997693E4,3.5E0,1.15E1,2.05E1,1.25E1,2.0155E3,1.15E1,2.15E1,1E0,3.6598074E4,1E0,5E-1,2.5E0,2.5E0,1.4685935E4,5E-1,4.0006258E4,5.566974E4,2.0215E3,4.396963E4,4.0618543E4,2.0864242E4,6.5E0,1.25E1,3.5E0,5E-1,6.5E0,3.941586E4,2.0205E3,2.05E1,6.5E0,1.25E1,2.2325053E4,2.0205E3,2.0035E3,2.0055E3,2.0055E3,1.9975E3,2.0015E3,2.0055E3,1E0,1E0,1E0,3.0658286E3,2.0489226E3,2.0085E3,1.15E1,2.05E1,1.55E1,2.0085E3,2.500667E3,3.5840845E3,1E0,6.1847188E3,2.6122566E3,4.5807793E3,7.5756587E3,2.5E0,6.5E0,1.55E1,1.55E1,2.25E1,1E0,4.6360737E3,1.15E1,2.25E1,1.0608375E4,1E0,1.3356878E4,3.5E0,1.5E0,3.1896568E4,1.7895006E4,3.8927446E3,7.5E0,1E0,1.55E1,1E0,1.15E1,2.05E1,1E0,1E0,6.5E0,1E0,3.5E0,1E0,1.8647732E4,1.3635221E4,6.866472E3,1.301243E4,2.5E0,2.5E0,3.2038832E4,2.6177324E4,2.0763268E4,1.5E0,3.2138938E4,2.5E0,2.8526264E4,3.2111646E4,5.5E0,2.0185E3,2.0185E3,1.308763E4,2.5E0,2.05E1,1.3838702E4,2.0185E3,5E-1,8E0,1.75E1,5E-1,5E-1,3.1547232E4,5.5E0,8.5E0,2.0205E3,2.5E0,3.626224E4,4.8790793E4,1.3775411E3,2.3821777E3,5.506154E2,1.3247827E3,1.3506348E3,2.6377473E3,5.5495054E3,2.7550862E3,-2.251583E1,5.7746674E2,8.218439E2,1.1849297E3,1.300976E3,4.8712833E2,2.0630327E3,1.5233213E3,1.8350844E3,1.2752137E3,3.7530212E3,4.325028E3,1.7539596E3,4.480054E3,1.4449955E3,2.0084641E3,2.55669E3,1.9113842E3,2.7109304E3,3.0434912E3,5.691851E3,4.7469062E3,9.22163E3,8.417156E3,2.2104363E3,2.823923E3,4.100486E3,2.9510945E3,4.394581E3,3.1796648E3,4.667552E3,6.105334E3,4.3572437E3,3.4047368E3,5.506822E3,1.0418476E4,4.758318E3,7.1569307E3,1.6085155E3,5.859103E3,1.1911413E4,8.1233086E3,8.590716E3,1.3704808E4,4.819404E3,6.135469E3,1.3151891E4,1.8832193E4,5.9976294E3,4.7806333E3,6.8337437E3,5.995571E3,7.2165283E3,1.8758547E4,6.264157E3,8.265202E3,1.2116276E4,7.5913486E3,1.1950765E4,1.4685508E4,5.5921826E3,9.456706E3,2.1887016E4,3.0373232E4,8.753877E3,5.0700933E3,1.1551839E4,1.036912E4,2.4721576E4,2.2347904E4,1.8901191E4,2.2642262E4,1.382963E4,2.7194682E4,2.761341E4,3.1663998E4,8.782868E3,5.9821816E3,1.020891E4,1.1486308E4,2.773611E4,3.64212E4,9.562756E3,1.310878E4,4.9857847E3,7.0814883E3,1.107644E4,1.3362984E4,1.2131594E4,1.6712816E4,2.7826756E4,1.7347387E4,1.3701499E4,1.158044E4,1.8743084E4,1.5627378E4,2.0895568E4,3.607279E4,1.6109914E4,8.828347E3,1.876803E4,1.2666798E4,4.094434E4,4.7589594E4,1.4562528E4,2.0061215E4],"split_indices":[2,2,0,2,0,2,2,2,0,2,2,2,0,0,5,0,0,2,2,2,2,2,0,2,5,5,5,0,2,0,0,0,0,2,2,0,0,2,0,0,0,0,0,0,0,0,5,0,5,0,0,5,5,5,0,0,0,0,0,0,0,0,5,0,5,2,2,0,0,0,0,5,2,5,2,0,0,0,0,0,0,0,0,5,0,0,5,0,0,0,2,0,0,5,0,5,5,0,0,0,5,0,0,2,0,0,0,0,0,5,5,0,0,2,0,0,0,0,2,2,2,2,2,2,2,5,5,5,0,0,2,0,0,0,2,0,0,5,0,0,0,0,0,0,0,0,0,5,0,0,0,0,5,0,0,0,0,0,0,0,5,0,5,0,0,5,5,0,5,5,5,0,0,0,0,0,0,0,0,0,5,0,0,0,0,0,2,2,0,5,0,0,2,5,0,0,5,5,0,0,0,2,5,0,0,0,0,0,0,0,0,0,0,0,0,0,0,0,0,0,0,0,0,0,0,0,0,0,0,0,0,0,0,0,0,0,0,0,0,0,0,0,0,0,0,0,0,0,0,0,0,0,0,0,0,0,0,0,0,0,0,0,0,0,0,0,0,0,0,0,0,0,0,0,0,0,0,0,0,0,0,0,0,0,0,0,0,0,0,0,0,0,0,0,0,0,0,0,0,0,0,0,0,0,0,0,0,0,0,0,0,0,0,0,0,0,0,0,0],"split_type":[0,0,0,0,0,0,0,0,0,0,0,0,0,0,0,0,0,0,0,0,0,0,0,0,0,0,0,0,0,0,0,0,0,0,0,0,0,0,0,0,0,0,0,0,0,0,0,0,0,0,0,0,0,0,0,0,0,0,0,0,0,0,0,0,0,0,0,0,0,0,0,0,0,0,0,0,0,0,0,0,0,0,0,0,0,0,0,0,0,0,0,0,0,0,0,0,0,0,0,0,0,0,0,0,0,0,0,0,0,0,0,0,0,0,0,0,0,0,0,0,0,0,0,0,0,0,0,0,0,0,0,0,0,0,0,0,0,0,0,0,0,0,0,0,0,0,0,0,0,0,0,0,0,0,0,0,0,0,0,0,0,0,0,0,0,0,0,0,0,0,0,0,0,0,0,0,0,0,0,0,0,0,0,0,0,0,0,0,0,0,0,0,0,0,0,0,0,0,0,0,0,0,0,0,0,0,0,0,0,0,0,0,0,0,0,0,0,0,0,0,0,0,0,0,0,0,0,0,0,0,0,0,0,0,0,0,0,0,0,0,0,0,0,0,0,0,0,0,0,0,0,0,0,0,0,0,0,0,0,0,0,0,0,0,0,0,0,0,0,0,0,0,0,0,0,0,0,0,0,0,0,0,0,0,0,0,0,0,0,0,0,0,0,0,0,0,0,0,0,0,0,0,0,0,0,0,0,0,0,0,0,0,0,0,0,0,0,0,0],"sum_hessian":[9.2701E4,6.9249E4,2.3452E4,4.7351E4,2.1898E4,5.243E3,1.8209E4,2.7747E4,1.9604E4,3.458E3,1.844E4,2.566E3,2.677E3,9.142E3,9.067E3,1.2625E4,1.5122E4,3.395E3,1.6209E4,1.532E3,1.926E3,1.2422E4,6.018E3,1.901E3,6.65E2,1.292E3,1.385E3,8.504E3,6.38E2,1.725E3,7.342E3,6.537E3,6.088E3,2.91E3,1.2212E4,1.673E3,1.722E3,1.2672E4,3.537E3,7.87E2,7.45E2,8.89E2,1.037E3,3.782E3,8.64E3,5.624E3,3.94E2,1.167E3,7.34E2,6.13E2,5.2E1,7.37E2,5.55E2,6.45E2,7.4E2,3.186E3,5.318E3,3.63E2,2.75E2,8.72E2,8.53E2,6.96E3,3.82E2,5.403E3,1.134E3,3.724E3,2.364E3,9.54E2,1.956E3,3.579E3,8.633E3,1.11E2,1.562E3,4.7E1,1.675E3,4.259E3,8.413E3,6.85E2,2.852E3,1.6E1,7.71E2,1E1,7.35E2,4.37E2,4.52E2,2.5E1,1.012E3,1.612E3,2.17E3,8.111E3,5.29E2,1.887E3,3.737E3,3.72E2,2.2E1,2.3E1,1.144E3,3.74E2,3.6E2,4E0,6.09E2,6.3E2,1.07E2,5E2,5.5E1,6.03E2,4.2E1,2.284E3,9.02E2,4.301E3,1.017E3,4.1E2,4.62E2,3.9E2,4.63E2,2.577E3,4.383E3,1.85E2,1.97E2,3.615E3,1.788E3,4.01E2,7.33E2,1.664E3,2.06E3,5.7E2,1.794E3,4.2E1,9.12E2,8.9E1,1.867E3,1.376E3,2.203E3,6.967E3,1.666E3,4E1,7.1E1,8.02E2,7.6E2,1.7E1,3E1,9.01E2,7.74E2,8.44E2,3.415E3,7.286E3,1.127E3,3.05E2,3.8E2,8.64E2,1.988E3,7.59E2,1.2E1,3.53E2,3.82E2,4.34E2,3E0,1.011E3,1E0,1.405E3,2.07E2,1.563E3,6.07E2,3.256E3,4.855E3,2.24E2,3.05E2,1.505E3,3.82E2,3.039E3,6.98E2,2.98E2,7.4E1,7E0,1.6E1,6.84E2,4.6E2,1.37E2,2.37E2,1.69E2,1.91E2,3.62E2,2.47E2,3.91E2,1.09E2,2.95E2,1.989E3,7.94E2,1.08E2,4.099E3,2.02E2,4.89E2,5.28E2,1.22E2,2.88E2,1.55E2,2.35E2,1.39E2,3.24E2,4.63E2,2.114E3,3.94E2,3.989E3,7.7E1,1.2E2,1.394E3,2.221E3,1.086E3,7.02E2,2.85E2,1.16E2,5.4E1,6.79E2,2.9E2,1.374E3,8.42E2,1.218E3,1.63E2,4.07E2,7.14E2,1.08E3,3E1,1.2E1,9.97E2,8.7E2,1.126E3,2.5E2,1.409E3,7.94E2,3.939E3,3.028E3,8.13E2,8.53E2,5.3E2,2.72E2,3.86E2,3.88E2,3.89E2,4.55E2,1.156E3,2.259E3,4.057E3,3.229E3,8.21E2,3.06E2,1.62E2,1.43E2,6.39E2,2.25E2,1.832E3,1.56E2,3E0,9E0,3.71E2,1.1E1,2.3E1,4.11E2,7.46E2,6.59E2,9.8E1,1.09E2,2.35E2,1.328E3,3.31E2,2.76E2,2.666E3,5.9E2,3.524E3,1.331E3,1.67E2,5.7E1,1.92E2,1.13E2,2.31E2,1.274E3,1.72E2,2.1E2,2.938E3,1.01E2,3.54E2,3.44E2,3.44E2,3.4E2,2.1E2,2.5E2,5E0,1.86E2,1.44E2,1.03E2,1E2,1.95E2,1.171E3,8.18E2,4.4E2,3.54E2,3.869E3,2.3E2,1.68E2,3.4E1,3.61E2,1.67E2,4.8E1,7.4E1,2.06E2,8.2E1,6.3E1,9.2E1,1.5E2,8.5E1,8.7E1,5.2E1,8.8E1,3.75E2,6.51E2,1.463E3,1.5E2,2.44E2,3.375E3,6.14E2],"tree_param":{"num_deleted":"0","num_feature":"7","num_nodes":"319","size_leaf_vector":"0"}},{"base_weights":[3.5407402E4,8.074969E4,2.3069291E4,6.475014E4,2.4873519E5,2.0155285E4,5.9688906E4,4.6028254E4,9.883793E4,2.8310872E5,1.8660452E5,3.2431586E4,1.550833E4,1.1322161E5,3.925983E4,1.10892125E5,4.237268E4,1.1700417E5,8.309716E4,2.5234434E5,3.7449088E5,1.3591956E5,1.9649678E5,2.2249846E4,5.496986E4,1.1337004E4,2.102255E4,1.3104815E5,9.254408E4,5.608511E4,2.8614643E4,1.3414578E5,7.7910516E4,3.3622758E4,5.6224152E4,1.14302945E5,2.1860895E5,7.676916E4,1.3227864E5,1.4841881E5,2.5577905E5,4.319008E5,2.3744297E5,1.3689647E5,1.7648828E4,3.0222188E5,1.8790197E5,1.7707492E4,2.7833863E4,4.9016324E4,9.958421E4,1.3812295E4,9.27742E3,2.9974256E4,1.5728559E4,1.0341182E5,1.450115E5,8.871686E4,1.4671833E5,6.871023E4,4.937675E4,3.3125004E4,2.3408043E4,6.417677E4,1.5792047E5,9.2428766E4,5.4515293E4,4.1842652E4,2.8010229E4,7.0751305E4,4.3762332E4,7.0365805E4,1.16841086E5,1.8562334E5,2.784747E5,9.0747484E4,6.642859E4,1.3638845E5,7.627372E4,2.0675952E5,1.2764952E5,3.3642634E5,2.496396E5,4.6650434E5,3.9398325E5,1.8172436E5,7.4405425E5,3.1565023E4,1.3761967E5,3.1163797E5,9.1626945E4,1.9619264E5,1.3921823E5,1.5098672E4,2.0649285E4,2.554358E4,4.0383285E4,9.0497305E4,4.8149934E4,8.179078E4,1.19950516E5,1.0020992E4,1.6707861E4,5.1891973E3,9.765292E3,2.8133371E4,6.324808E4,1.8057389E4,1.2787018E4,1.2682871E5,7.7218016E4,1.7153855E5,1.1912875E5,1.8848744E5,8.669491E4,8.423058E4,1.8294281E5,-7.652278E2,6.965973E4,4.7717457E4,9.188434E4,3.2405254E4,6.4022223E4,2.2850729E4,5.2639164E4,6.636294E4,4.545039E4,3.070883E5,1.28441055E5,9.75144E4,2.7812096E4,6.721605E4,4.1010414E4,3.5223816E4,5.6281977E4,2.4154406E4,3.3869285E4,1.2129889E5,6.680116E4,4.1719754E4,5.6141215E4,4.4926625E4,7.538363E4,1.6012769E5,1.1324327E5,5.7118418E4,9.564147E4,6.0921656E4,9.444177E4,1.1740341E5,1.5305694E5,8.624645E3,7.8381734E4,1.3100297E5,2.526016E4,3.929738E5,2.945013E5,5.878339E4,2.5135627E5,5.2202497E5,4.1935822E5,1.1650264E5,4.106325E5,2.0400025E5,1.3018317E5,1.01889706E6,2.1448716E5,2.4794755E5,3.5801516E5,1.8122498E5,2.3902539E5,9.9918125E4,1.7278627E5,1.6910611E4,7.712603E3,1.839369E4,2.653714E4,2.9495395E4,2.2237244E4,4.4572938E4,1.8601783E4,7.695205E4,1.4633152E5,4.5204273E4,5.9234688E4,8.939094E4,7.463089E4,1.2543717E5,2.2756748E4,7.965853E3,1.2203803E4,1.4889874E4,2.1291057E4,5.575316E3,3.1865662E3,1.0816178E4,7.656487E3,3.658398E4,2.5073854E4,7.6157555E4,1.3726811E4,1.6621373E4,2.3908463E4,1.1545617E4,1.6839395E4,1.8891648E5,1.1046655E5,1.1652572E5,6.627066E4,1.8572458E5,1.3250883E5,4.2372746E4,1.3395048E5,9.749347E4,7.480494E4,9.049594E4,3.9677836E4,7.944725E4,1.9748781E5,-5.0818354E3,8.123064E3,7.729168E4,6.0516543E4,5.389842E4,3.7718098E4,1.14236695E5,5.2975266E4,1.388606E4,3.3361664E4,7.94254E3,2.3499373E4,5.7017824E4,2.8099621E4,1.373275E5,7.551498E4,6.582532E4,1.14681375E5,3.4814457E4,1.6836576E4,5.6401695E4,1.1141617E5,4.3397766E4,9.889742E3,4.8726918E4,3.1858217E4,4.8230754E4,6.8584664E4,2.511976E4,8.945021E3,4.579321E4,3.0342805E4,7.749118E4,1.3283536E5,5.793989E4,7.254989E4,4.6148625E4,3.6230043E4,6.686171E4,5.1923727E4,5.252342E4,2.9787547E4,6.622556E4,8.7167336E4,1.6550008E5,1.1204359E5,1.0632232E5,1.2667038E5,2.6138646E4,6.115554E4,1.116602E5,7.887315E4,3.2116666E4,6.2907965E4,1.07122984E5,8.055114E4,1.0558113E5,1.4042927E5,1.8608078E5,1.382244E5,3.5522297E4,1.3372834E5,2.2684117E4,3.192753E5,2.3705245E5,2.7105566E5,2.7144144E5,4.3463775E5,2.5467392E5,1.029935E4,4.7748062E5,3.7449053E5,1.8420866E5,2.7809244E5,7.525914E4,1.3967656E5,1.1914134E6,1.6441584E5,1.9120398E5,7.139652E4,2.9344472E5,1.9918316E5,1.14202234E5,3.564844E4,1.3565225E5,2.2675514E5,1.3503209E4,2.0707658E4,8.917971E3,3.870334E3,4.6001274E3,1.919623E4,3.2669666E4,2.2691264E4,2.1376436E4,3.1137664E4,1.6488354E4,2.3793158E4,4.2910457E4,5.6538773E4,2.2219549E4,9.286744E3,8.9679195E4,6.3646152E4,1.8377458E5,7.187548E4,5.2669484E4,3.9295535E4,6.4680992E4,4.041676E4,8.994233E4,2.834863E4,1.6535492E5,1.1784138E5,-1.4191543E3,2.4262338E4,9.072238E3,6.5477573E3,1.08245E4,1.6362927E4,1.5234603E4,3.3157434E3,2.2753803E4,9.475452E3,3.829029E3,6.0633677E3,2.8002268E3,4.965002E3,9.885759E3,1.3175578E4,8.434066E3,6.0552686E3,2.9895783E4,4.409128E4,2.2961996E4,3.359967E4,6.0054695E4,9.500994E4,1.7969104E4,5.6205146E3,2.1569572E4,1.4662126E4,2.697841E4,1.6765334E4,1.4459333E4,1.0382705E4,1.9737766E4,1.3384343E4,1.0895365E5,2.3424811E5,3.2733457E4,1.1524597E5,8.809322E4,1.4987361E5,4.6868965E4,8.0274164E4,1.5765466E5,2.2797898E5,8.392073E4,1.6152125E5,2.0234092E4,5.6382438E4,8.3256875E4,1.4253858E5,3.5132035E4,1.0183379E5,5.4034426E4,9.919523E4,1.613775E5,1.8620314E4,2.1559231E5,8.91932E4,4.5010352E2,-6.278244E3,6.89954E4,9.512219E4,4.102671E4,8.244611E4,1.8130979E4,5.6275953E4,2.6138357E4,5.392537E4,1.3421364E5,6.250032E4,2.1118283E4,5.9179656E4,1.8062564E4,8.992166E3,3.651588E4,2.7543398E4,5.2324873E3,1.7446488E4,1.6760164E4,2.494864E4,1.2445479E4,5.9159613E4],"categories":[],"categories_nodes":[],"categories_segments":[],"categories_sizes":[],"default_left":[true,true,true,true,true,true,true,true,true,true,true,true,true,true,true,true,true,true,true,true,true,true,true,true,true,true,true,true,true,true,true,true,true,true,true,true,true,true,true,true,true,true,true,true,false,true,true,true,true,true,true,true,true,true,true,true,true,true,true,true,true,true,true,true,true,true,true,true,true,true,true,true,true,false,false,true,true,true,true,false,true,true,true,true,true,true,true,false,false,true,false,true,true,true,true,true,true,true,true,true,true,true,true,true,true,true,true,true,true,true,true,true,true,false,true,true,true,true,true,true,true,true,false,true,true,false,false,false,true,true,true,true,true,true,true,true,true,true,true,true,true,true,true,true,true,true,true,true,true,true,true,false,false,true,false,false,true,false,true,false,true,true,true,true,true,true,false,false,false,true,true,true,true,true,true,true,true,true,true,true,true,true,true,true,true,true,false,true,true,true,true,true,true,true,true,true,true,true,true,true,true,true,true,true,true,true,true,true,true,true,true,true,true,true,true,false,false,true,true,true,false,true,true,true,true,true,true,true,true,true,true,true,false,false,false,false,false,false,false,false,false,false,false,false,false,false,false,false,false,false,false,false,false,false,false,false,false,false,false,false,false,false,false,false,false,false,false,false,false,false,false,false,false,false,false,false,false,false,false,false,false,false,false,false,false,false,false,false,false,false,false,false,false,false,false,false,false,false,false,false,false,false,false,false,false,false,false,false,false,false,false,false,false,false,false,false,false,false,false,false,false,false,false,false,false,false,false,false,false,false,false,false,false,false,false,false,false,false,false,false,false,false,false,false,false,false,false,false,false,false,false,false,false,false,false,false,false,false,false,false,false,false,false,false,false,false,false,false,false,false,false,false,false,false,false,false,false,false,false,false,false,false,false,false,false,false,false,false,false,false,false,false,false,false,false,false,false,false,false,false,false,false,false,false,false,false,false,false,false,false,false,false,false,false,false],"id":3,"left_children":[1,3,5,7,9,11,13,15,17,19,21,23,25,27,29,31,33,35,37,39,41,43,45,47,49,51,53,55,57,59,61,63,65,67,69,71,73,75,77,79,81,83,85,87,-1,89,91,93,95,97,99,101,103,105,107,109,111,113,115,117,119,121,123,125,127,129,131,133,135,137,139,141,143,-1,-1,145,147,149,151,-1,153,155,157,159,161,163,165,-1,-1,167,-1,169,171,173,175,177,179,181,183,185,187,189,191,193,195,197,199,201,203,205,207,209,211,-1,213,215,217,219,221,223,225,227,-1,229,231,-1,-1,-1,233,235,237,239,241,243,245,247,249,251,253,255,257,259,261,263,265,267,269,271,273,275,277,-1,-1,279,-1,-1,281,-1,283,-1,285,287,289,291,293,295,-1,-1,-1,297,299,301,303,305,307,309,311,313,315,317,319,321,323,325,327,329,-1,331,333,335,337,339,341,343,345,347,349,351,353,355,357,359,361,363,365,367,369,371,373,375,377,379,381,383,385,-1,-1,387,389,391,-1,393,395,397,399,401,403,405,407,409,411,413,-1,-1,-1,-1,-1,-1,-1,-1,-1,-1,-1,-1,-1,-1,-1,-1,-1,-1,-1,-1,-1,-1,-1,-1,-1,-1,-1,-1,-1,-1,-1,-1,-1,-1,-1,-1,-1,-1,-1,-1,-1,-1,-1,-1,-1,-1,-1,-1,-1,-1,-1,-1,-1,-1,-1,-1,-1,-1,-1,-1,-1,-1,-1,-1,-1,-1,-1,-1,-1,-1,-1,-1,-1,-1,-1,-1,-1,-1,-1,-1,-1,-1,-1,-1,-1,-1,-1,-1,-1,-1,-1,-1,-1,-1,-1,-1,-1,-1,-1,-1,-1,-1,-1,-1,-1,-1,-1,-1,-1,-1,-1,-1,-1,-1,-1,-1,-1,-1,-1,-1,-1,-1,-1,-1,-1,-1,-1,-1,-1,-1,-1,-1,-1,-1,-1,-1,-1,-1,-1,-1,-1,-1,-1,-1,-1,-1,-1,-1,-1,-1,-1,-1,-1,-1,-1,-1,-1,-1,-1,-1,-1,-1,-1,-1,-1,-1,-1,-1,-1,-1,-1,-1,-1,-1,-1,-1,-1,-1,-1,-1,-1,-1,-1],"loss_changes":[5.185918E13,5.327813E13,7.7751617E12,1.1550484E13,3.6290376E12,3.8504256E12,5.8694084E12,2.766932E12,1.8255121E12,3.0204274E12,2.8264995E11,4.2521686E12,1.1261507E12,5.345179E11,6.949474E11,4.67354E11,1.3394237E12,7.9207334E11,1.06106454E12,2.5902344E11,2.0768642E12,9.600106E9,4.1027843E11,3.2338765E11,1.5269102E12,1.4201625E11,9.9894166E11,2.9140556E11,1.3004544E11,1.2415612E11,5.5209624E10,5.953757E11,8.327227E10,3.1184965E11,7.722752E11,3.1540327E11,9.8386575E10,4.351192E11,7.9593734E10,8.746435E9,3.1409884E11,7.074952E10,2.2359116E12,3.5021128E9,0E0,4.4815876E10,1.6561734E11,5.374791E10,1.6354378E11,1.785704E11,2.3588661E11,1.3882465E11,3.0310138E10,4.7820046E11,9.0563674E10,1.558184E11,3.4002698E11,1.1417944E11,8.41884E10,3.4356068E10,6.523139E10,2.627915E10,1.6880108E10,8.3204506E8,1.1522471E12,4.9538007E10,1.4738719E10,2.60935E11,9.033849E10,3.8644534E11,5.6015454E10,1.7164861E10,4.088985E11,0E0,0E0,2.0766943E11,2.6544806E11,9.690258E10,3.4595308E9,0E0,4.9313874E9,1.2289311E10,2.3128231E11,3.2371638E10,4.0952555E11,6.184816E10,9.4584124E11,0E0,0E0,1.4613742E10,0E0,2.1697135E11,7.903904E10,4.9882268E10,4.3444208E10,6.264901E10,7.965953E10,6.6637267E10,1.601899E11,1.3190562E10,1.6459235E11,2.4508432E10,5.9483095E10,1.2387697E9,3.0051795E10,1.9110665E11,2.6106502E11,6.173727E10,2.9285024E10,1.223717E11,4.8218767E10,1.1768431E11,3.0035385E11,0E0,7.436606E10,1.4338212E9,2.4954405E10,3.4821824E8,3.11199E10,5.680608E10,2.5257804E10,2.1641298E10,0E0,1.036347E10,5.468242E8,0E0,0E0,0E0,9.686378E10,7.24199E10,4.1295258E8,1.809372E10,3.4342093E9,8.429529E10,8.217349E10,3.5556426E10,6.584756E10,6.1471326E10,8.927366E10,4.6589805E10,1.1177492E10,1.7707049E9,8.580104E9,3.5188638E10,2.2210517E11,1.9287998E10,2.9445063E11,8.220102E10,4.1926525E10,3.2539148E10,6.7346366E10,0E0,0E0,1.2347638E9,0E0,0E0,2.2844749E11,0E0,1.4538716E11,0E0,1.084647E10,1.0009674E11,4.5878346E10,2.502584E10,3.044868E9,5.411727E11,0E0,0E0,0E0,3.2062308E11,1.6270649E11,2.8978151E10,4.5395345E10,3.8534644E10,3.383419E9,2.6424115E10,2.0815348E10,2.8721414E10,2.3239852E10,1.2274893E10,4.6464E9,8.686666E9,3.9760495E10,1.7194392E11,1.0438338E11,3.2394445E9,0E0,7.056654E10,6.8961485E8,4.377608E9,1.5070986E10,2.0465713E10,3.497309E10,1.1367342E9,1.681728E8,1.9787088E10,5.5841423E9,9.769635E10,9.74654E10,9.295679E10,2.8564828E9,5.72803E10,3.1454527E10,1.5060369E10,1.3475054E10,7.5973526E10,3.858078E10,1.2397576E10,2.4493588E10,1.8466839E11,8.79404E10,1.2816155E10,8.608914E10,8.574311E10,1.5016578E11,0E0,0E0,2.191293E10,2.586483E10,4.253661E7,0E0,3.4264842E10,9.833952E10,4.8812E10,6.7467575E10,1.4349369E10,1.7150239E9,1.1252593E9,2.0759708E10,1.119253E9,9.78826E9,7.91167E8,0E0,0E0,0E0,0E0,0E0,0E0,0E0,0E0,0E0,0E0,0E0,0E0,0E0,0E0,0E0,0E0,0E0,0E0,0E0,0E0,0E0,0E0,0E0,0E0,0E0,0E0,0E0,0E0,0E0,0E0,0E0,0E0,0E0,0E0,0E0,0E0,0E0,0E0,0E0,0E0,0E0,0E0,0E0,0E0,0E0,0E0,0E0,0E0,0E0,0E0,0E0,0E0,0E0,0E0,0E0,0E0,0E0,0E0,0E0,0E0,0E0,0E0,0E0,0E0,0E0,0E0,0E0,0E0,0E0,0E0,0E0,0E0,0E0,0E0,0E0,0E0,0E0,0E0,0E0,0E0,0E0,0E0,0E0,0E0,0E0,0E0,0E0,0E0,0E0,0E0,0E0,0E0,0E0,0E0,0E0,0E0,0E0,0E0,0E0,0E0,0E0,0E0,0E0,0E0,0E0,0E0,0E0,0E0,0E0,0E0,0E0,0E0,0E0,0E0,0E0,0E0,0E0,0E0,0E0,0E0,0E0,0E0,0E0,0E0,0E0,0E0,0E0,0E0,0E0,0E0,0E0,0E0,0E0,0E0,0E0,0E0,0E0,0E0,0E0,0E0,0E0,0E0,0E0,0E0,0E0,0E0,0E0,0E0,0E0,0E0,0E0,0E0,0E0,0E0,0E0,0E0,0E0,0E0,0E0,0E0,0E0,0E0,0E0,0E0,0E0,0E0,0E0,0E0,0E0,0E0,0E0,0E0,0E0,0E0,0E0,0E0,0E0,0E0,0E0,0E0,0E0,0E0,0E0],"parents":[2147483647,0,0,1,1,2,2,3,3,4,4,5,5,6,6,7,7,8,8,9,9,10,10,11,11,12,12,13,13,14,14,15,15,16,16,17,17,18,18,19,19,20,20,21,21,22,22,23,23,24,24,25,25,26,26,27,27,28,28,29,29,30,30,31,31,32,32,33,33,34,34,35,35,36,36,37,37,38,38,39,39,40,40,41,41,42,42,43,43,45,45,46,46,47,47,48,48,49,49,50,50,51,51,52,52,53,53,54,54,55,55,56,56,57,57,58,58,59,59,60,60,61,61,62,62,63,63,64,64,65,65,66,66,67,67,68,68,69,69,70,70,71,71,72,72,75,75,76,76,77,77,78,78,80,80,81,81,82,82,83,83,84,84,85,85,86,86,89,89,91,91,92,92,93,93,94,94,95,95,96,96,97,97,98,98,99,99,100,100,101,101,102,102,103,103,104,104,105,105,106,106,107,107,108,108,109,109,110,110,111,111,112,112,114,114,115,115,116,116,117,117,118,118,119,119,120,120,121,121,123,123,124,124,128,128,129,129,130,130,131,131,132,132,133,133,134,134,135,135,136,136,137,137,138,138,139,139,140,140,141,141,142,142,143,143,144,144,145,145,146,146,147,147,148,148,149,149,150,150,153,153,156,156,158,158,160,160,161,161,162,162,163,163,164,164,165,165,169,169,170,170,171,171,172,172,173,173,174,174,175,175,176,176,177,177,178,178,179,179,180,180,181,181,182,182,183,183,184,184,185,185,187,187,188,188,189,189,190,190,191,191,192,192,193,193,194,194,195,195,196,196,197,197,198,198,199,199,200,200,201,201,202,202,203,203,204,204,205,205,206,206,207,207,208,208,209,209,210,210,211,211,212,212,213,213,214,214,217,217,218,218,219,219,221,221,222,222,223,223,224,224,225,225,226,226,227,227,228,228,229,229,230,230,231,231],"right_children":[2,4,6,8,10,12,14,16,18,20,22,24,26,28,30,32,34,36,38,40,42,44,46,48,50,52,54,56,58,60,62,64,66,68,70,72,74,76,78,80,82,84,86,88,-1,90,92,94,96,98,100,102,104,106,108,110,112,114,116,118,120,122,124,126,128,130,132,134,136,138,140,142,144,-1,-1,146,148,150,152,-1,154,156,158,160,162,164,166,-1,-1,168,-1,170,172,174,176,178,180,182,184,186,188,190,192,194,196,198,200,202,204,206,208,210,212,-1,214,216,218,220,222,224,226,228,-1,230,232,-1,-1,-1,234,236,238,240,242,244,246,248,250,252,254,256,258,260,262,264,266,268,270,272,274,276,278,-1,-1,280,-1,-1,282,-1,284,-1,286,288,290,292,294,296,-1,-1,-1,298,300,302,304,306,308,310,312,314,316,318,320,322,324,326,328,330,-1,332,334,336,338,340,342,344,346,348,350,352,354,356,358,360,362,364,366,368,370,372,374,376,378,380,382,384,386,-1,-1,388,390,392,-1,394,396,398,400,402,404,406,408,410,412,414,-1,-1,-1,-1,-1,-1,-1,-1,-1,-1,-1,-1,-1,-1,-1,-1,-1,-1,-1,-1,-1,-1,-1,-1,-1,-1,-1,-1,-1,-1,-1,-1,-1,-1,-1,-1,-1,-1,-1,-1,-1,-1,-1,-1,-1,-1,-1,-1,-1,-1,-1,-1,-1,-1,-1,-1,-1,-1,-1,-1,-1,-1,-1,-1,-1,-1,-1,-1,-1,-1,-1,-1,-1,-1,-1,-1,-1,-1,-1,-1,-1,-1,-1,-1,-1,-1,-1,-1,-1,-1,-1,-1,-1,-1,-1,-1,-1,-1,-1,-1,-1,-1,-1,-1,-1,-1,-1,-1,-1,-1,-1,-1,-1,-1,-1,-1,-1,-1,-1,-1,-1,-1,-1,-1,-1,-1,-1,-1,-1,-1,-1,-1,-1,-1,-1,-1,-1,-1,-1,-1,-1,-1,-1,-1,-1,-1,-1,-1,-1,-1,-1,-1,-1,-1,-1,-1,-1,-1,-1,-1,-1,-1,-1,-1,-1,-1,-1,-1,-1,-1,-1,-1,-1,-1,-1,-1,-1,-1,-1,-1,-1,-1,-1],"split_conditions":[5.41805E4,2.7275E3,2.8455E3,1.9295E3,2.0691E4,1.26995E5,1.399475E5,3.24E2,5.1555E3,3.8435E3,2.85E1,1.93E3,1.949E3,1.005945E5,2.1525E5,1.25E1,1.4975E3,2.74E2,2.665E2,2.75E1,4.3995E3,5.3925E4,4.5E1,1.469E3,2.645E2,1.7995E5,1.904425E5,1.22E2,5.45E3,1.67956E5,2.7625E5,9.45E1,1.0913E4,3.002E3,5.475E3,2.35E1,8.5E0,1.985E3,5.1119E4,6E3,4.5E1,2.15E1,1.9E2,2.35E1,3.5297656E3,3.9875E3,4.731E3,1.2995E3,2.28E2,1.953E3,2.745E2,1.4415E3,1.361E3,2.665E2,2.44029E5,6E1,2.085E2,2.9355E3,1.105E2,2.4E1,5.45E3,4.982E3,5.45E3,8.65E1,1.035E2,2.74E2,2.075E4,1.273E3,1.3295E3,1.95E1,2.315E2,1.3E1,3.4E1,3.7124668E4,5.5694938E4,2.35E1,2.195E2,2.74E2,5.13345E4,4.1351902E4,2.65E1,2.75E1,7.3E1,2.135E2,5.4E1,6.1E3,1.2723E4,6.313005E3,2.7523936E4,2.997E3,1.8325389E4,3.78E3,5.45E3,1.203E3,1.695E2,9.2898E4,2.765E2,1.115E2,2.185E2,9.2717E4,2.76E2,1.361E3,1.695E2,2.371935E5,2.3581E5,1.9685E3,2.76E2,2.185E2,2.185E2,6.15E4,2.9995E3,4.6635E3,2.195E2,3.769749E4,2.994E3,1.365E5,1.0205E5,1.548365E5,2.994E3,2.9955E3,5.4615E3,2.35E1,1.2804444E4,2.9495E3,3.1895E5,1.3272588E4,9.090078E3,6.1417664E4,2.115E2,9.75E1,6.657E3,1.99995E4,4.9902E4,4E1,1.685E2,2.465E2,1.3555E3,1.579E3,1.51E2,3.34675E4,2.385E2,3E0,1.9875E3,2.143E3,2.185E2,2.25E1,1.255E2,1E1,2.525E2,1.982E3,3.3082E4,1.724929E3,1.5676347E4,7.521E3,5.052032E3,7.8594766E4,1.105E3,1.1756679E4,2.215E2,1.0440499E5,2.21E2,3.9975E3,4.5E1,3.75E1,5.019E3,2.15E2,4.2897434E4,4.958951E4,7.160303E4,3.096E3,3.998E3,1.9E2,1.845E2,1.196E3,1.465E2,1.5E1,1.865E2,4.15E1,4.15E1,2.615E2,1.642E3,8.47E4,2.565E2,1.9935E3,2.525E2,2.4485E3,1.4926179E4,6.96425E4,2.78E2,1.1995E3,1.695E2,1.655E2,2.635E2,1.196E3,1.98E2,1.695E2,2.8363E5,1.49E2,2.185E2,2.745E2,1.9825E3,1.972E3,1.9975E3,1.976E3,1.9965E3,2.9985E3,2.55E1,2.9915E3,3.7935E3,1.985E2,5.45E3,2.986E3,2.986E3,2.963E3,3.8895E3,1.8099188E4,7.9355674E3,2.145E2,1.26494E5,1.75E1,1.6246128E3,2.99E3,3.959E3,2.55E1,3.97E3,1.980115E5,5.879E3,2.972E3,2.9955E3,2.21E2,2.65E1,5.25E1,5.6199243E3,2.74655E4,1.5102995E4,1.3165064E4,2.2936275E4,6.9628916E3,3.3673152E3,1.1280339E4,2.2283234E4,8.679554E3,1.9779485E3,9.745384E3,6.3716436E3,9.646151E3,1.3716933E4,5.023952E3,1.7890043E3,9.158643E3,6.068561E3,1.5498236E4,2.6567072E4,1.1587979E4,1.4509979E4,9.229726E3,7.246009E3,1.3372343E4,1.0384745E4,1.0504685E4,5.9575093E3,1.3245112E4,1.7433467E4,3.3100016E4,2.2408719E4,2.1264465E4,2.5334076E4,5.2277295E3,1.2231108E4,2.2332041E4,1.577463E4,6.4233335E3,1.2581593E4,2.1424598E4,1.6110229E4,2.1116227E4,2.8085854E4,3.7216156E4,2.764488E4,7.1044595E3,2.674567E4,4.5368237E3,6.3855062E4,4.7410492E4,5.4211133E4,5.428829E4,8.6927555E4,5.0934785E4,2.0598699E3,9.5496125E4,7.489811E4,3.684173E4,5.561849E4,1.5051828E4,2.7935312E4,2.3828267E5,3.2883168E4,3.8240797E4,1.4279305E4,5.8688945E4,3.9836633E4,2.2840447E4,7.1296885E3,2.7130451E4,4.5351027E4,2.7006418E3,4.1415317E3,1.7835941E3,7.7406683E2,9.200255E2,3.839246E3,6.533933E3,4.538253E3,4.275287E3,6.2275327E3,3.2976707E3,4.758632E3,8.582092E3,1.1307755E4,4.4439097E3,1.8573489E3,1.793584E4,1.272923E4,3.6754918E4,1.4375096E4,1.0533897E4,7.859107E3,1.2936198E4,8.0833525E3,1.7988467E4,5.669726E3,3.3070984E4,2.3568277E4,-2.8383087E2,4.852468E3,1.8144476E3,1.3095515E3,2.1649001E3,3.2725854E3,3.0469207E3,6.631487E2,4.5507607E3,1.8950905E3,7.6580585E2,1.2126736E3,5.6004535E2,9.930004E2,1.9771517E3,2.6351157E3,1.6868134E3,1.2110537E3,5.9791567E3,8.818257E3,4.5923994E3,6.7199346E3,1.2010939E4,1.9001988E4,3.5938208E3,1.1241029E3,4.3139146E3,2.9324253E3,5.395682E3,3.353067E3,2.8918667E3,2.076541E3,3.9475532E3,2.6768687E3,2.179073E4,4.684962E4,6.5466914E3,2.3049193E4,1.7618645E4,2.9974723E4,9.373793E3,1.6054833E4,3.1530932E4,4.5595797E4,1.6784146E4,3.230425E4,4.0468184E3,1.1276487E4,1.6651375E4,2.8507717E4,7.026407E3,2.0366758E4,1.0806886E4,1.9839045E4,3.22755E4,3.724063E3,4.3118465E4,1.783864E4,9.0020706E1,-1.2556488E3,1.379908E4,1.9024438E4,8.205343E3,1.6489223E4,3.6261958E3,1.125519E4,5.2276714E3,1.0785074E4,2.6842729E4,1.2500064E4,4.2236567E3,1.1835932E4,3.612513E3,1.7984332E3,7.303176E3,5.5086797E3,1.0464974E3,3.4892976E3,3.352033E3,4.989728E3,2.4890957E3,1.1831923E4],"split_indices":[3,4,4,4,3,3,3,4,3,4,1,4,4,3,3,3,4,1,1,1,4,3,1,4,1,3,3,1,4,3,3,1,3,3,3,1,3,4,3,3,1,3,1,1,0,4,4,4,1,4,1,4,4,1,3,1,1,4,1,1,4,4,4,1,1,1,3,4,4,1,1,1,1,0,0,1,1,1,3,0,1,3,1,1,3,3,3,0,0,4,0,4,4,4,1,3,1,1,1,3,1,4,1,3,3,4,1,1,1,3,4,4,1,0,4,3,3,3,4,4,4,1,0,4,3,0,0,0,1,1,3,3,3,1,1,1,4,4,1,3,1,3,4,3,1,1,1,1,1,4,3,0,0,3,0,0,3,0,1,0,1,4,1,3,4,1,0,0,0,4,4,1,1,4,1,1,1,1,1,1,4,3,1,4,1,4,0,3,1,4,1,1,1,4,1,1,3,1,1,1,4,4,4,4,4,4,1,4,4,1,4,4,4,4,4,0,0,1,3,1,0,4,4,1,4,3,4,4,4,1,1,1,0,0,0,0,0,0,0,0,0,0,0,0,0,0,0,0,0,0,0,0,0,0,0,0,0,0,0,0,0,0,0,0,0,0,0,0,0,0,0,0,0,0,0,0,0,0,0,0,0,0,0,0,0,0,0,0,0,0,0,0,0,0,0,0,0,0,0,0,0,0,0,0,0,0,0,0,0,0,0,0,0,0,0,0,0,0,0,0,0,0,0,0,0,0,0,0,0,0,0,0,0,0,0,0,0,0,0,0,0,0,0,0,0,0,0,0,0,0,0,0,0,0,0,0,0,0,0,0,0,0,0,0,0,0,0,0,0,0,0,0,0,0,0,0,0,0,0,0,0,0,0,0,0,0,0,0,0,0,0,0,0,0,0,0,0,0,0,0,0,0,0,0,0,0,0,0,0,0,0,0,0,0,0],"split_type":[0,0,0,0,0,0,0,0,0,0,0,0,0,0,0,0,0,0,0,0,0,0,0,0,0,0,0,0,0,0,0,0,0,0,0,0,0,0,0,0,0,0,0,0,0,0,0,0,0,0,0,0,0,0,0,0,0,0,0,0,0,0,0,0,0,0,0,0,0,0,0,0,0,0,0,0,0,0,0,0,0,0,0,0,0,0,0,0,0,0,0,0,0,0,0,0,0,0,0,0,0,0,0,0,0,0,0,0,0,0,0,0,0,0,0,0,0,0,0,0,0,0,0,0,0,0,0,0,0,0,0,0,0,0,0,0,0,0,0,0,0,0,0,0,0,0,0,0,0,0,0,0,0,0,0,0,0,0,0,0,0,0,0,0,0,0,0,0,0,0,0,0,0,0,0,0,0,0,0,0,0,0,0,0,0,0,0,0,0,0,0,0,0,0,0,0,0,0,0,0,0,0,0,0,0,0,0,0,0,0,0,0,0,0,0,0,0,0,0,0,0,0,0,0,0,0,0,0,0,0,0,0,0,0,0,0,0,0,0,0,0,0,0,0,0,0,0,0,0,0,0,0,0,0,0,0,0,0,0,0,0,0,0,0,0,0,0,0,0,0,0,0,0,0,0,0,0,0,0,0,0,0,0,0,0,0,0,0,0,0,0,0,0,0,0,0,0,0,0,0,0,0,0,0,0,0,0,0,0,0,0,0,0,0,0,0,0,0,0,0,0,0,0,0,0,0,0,0,0,0,0,0,0,0,0,0,0,0,0,0,0,0,0,0,0,0,0,0,0,0,0,0,0,0,0,0,0,0,0,0,0,0,0,0,0,0,0,0,0,0,0,0,0,0,0,0,0,0,0,0,0,0,0,0,0,0,0,0,0,0,0,0,0,0,0,0,0,0,0,0,0,0,0,0,0,0,0,0,0,0,0,0,0,0,0],"sum_hessian":[9.2701E4,1.9828E4,7.2873E4,1.8105E4,1.723E3,6.7503E4,5.37E3,1.1688E4,6.417E3,1.107E3,6.16E2,1.8534E4,4.8969E4,1.482E3,3.888E3,6.22E2,1.1066E4,2.976E3,3.441E3,8.31E2,2.76E2,1.03E2,5.13E2,1.2768E4,5.766E3,2.7881E4,2.1088E4,7.93E2,6.89E2,1.505E3,2.383E3,3.63E2,2.59E2,6.784E3,4.282E3,2.901E3,7.5E1,3.051E3,3.9E2,2.8E1,8.03E2,1.93E2,8.3E1,1.02E2,1E0,3.6E1,4.77E2,7.043E3,5.725E3,5.089E3,6.77E2,1.266E4,1.5221E4,7.835E3,1.3253E4,2.69E2,5.24E2,6.46E2,4.3E1,5.19E2,9.86E2,1.274E3,1.109E3,9.3E1,2.7E2,1.58E2,1.01E2,2.75E3,4.034E3,1.975E3,2.307E3,1.6E2,2.741E3,5.1E1,2.4E1,1.294E3,1.757E3,3.62E2,2.8E1,5E0,2.3E1,5.3E1,7.5E2,9.5E1,9.8E1,7.6E1,7E0,1E0,1.01E2,3.4E1,2E0,4.05E2,7.2E1,3.736E3,3.307E3,4.844E3,8.81E2,1.02E2,4.987E3,3.64E2,3.13E2,5.484E3,7.176E3,1.624E3,1.3597E4,7.426E3,4.09E2,7.394E3,5.859E3,1.4E2,1.29E2,2.56E2,2.68E2,1.1E1,6.35E2,1.7E1,2.6E1,7E0,5.12E2,9.51E2,3.5E1,1.247E3,2.7E1,1.09E3,1.9E1,8.1E1,1.2E1,4.3E1,2.27E2,1.46E2,1.2E1,5E1,5.1E1,1.888E3,8.62E2,2.436E3,1.598E3,1.41E2,1.834E3,1.984E3,3.23E2,2.8E1,1.32E2,2.07E2,2.534E3,1.66E2,1.128E3,1.471E3,2.86E2,1.73E2,1.89E2,1E0,2.7E1,2.2E1,1E0,1.9E1,3.4E1,7E0,7.43E2,3.9E1,5.6E1,6E0,9.2E1,5.1E1,2.5E1,4E0,3E0,1.7E1,1.7E1,3.04E2,1.01E2,3.5E1,3.7E1,2.999E3,7.37E2,2.394E3,9.13E2,2.203E3,2.641E3,7.38E2,1.43E2,8.4E1,1.8E1,3.944E3,1.043E3,1.71E2,1.93E2,2.96E2,1.7E1,2.827E3,2.657E3,5.141E3,2.035E3,1.36E3,2.64E2,9.072E3,4.525E3,1.971E3,5.455E3,3.24E2,8.5E1,5.94E3,1.454E3,4.488E3,1.371E3,2.7E1,1.13E2,2.6E1,1.03E2,1.85E2,7.1E1,4.4E1,2.24E2,3.29E2,3.06E2,1.4E1,3E0,4E0,2.2E1,5E0,2E0,2.75E2,2.37E2,5.85E2,3.66E2,2.1E1,1.4E1,6.2E1,1.185E3,4.6E1,1.044E3,1.5E1,4E0,1.93E2,3.4E1,5.3E1,9.3E1,6E0,6E0,4.2E1,8E0,4.7E1,4E0,3.74E2,1.514E3,5.24E2,3.38E2,2.29E3,1.46E2,3.62E2,1.236E3,3.1E1,1.1E2,7.26E2,1.108E3,1.094E3,8.9E2,8.7E1,2.36E2,1.7E1,1.1E1,7.8E1,5.4E1,1.84E2,2.3E1,1.678E3,8.56E2,2E1,1.46E2,5.74E2,5.54E2,9.6E1,1.375E3,1.46E2,1.4E2,1.18E2,5.5E1,5.5E1,1.34E2,1E0,2.1E1,3E0,3.1E1,4.38E2,3.05E2,7E0,4.9E1,2E0,4E0,2.8E1,6.4E1,4.3E1,8E0,5E0,2E1,3E0,1E0,2.78E2,2.6E1,4E1,6.1E1,2.8E1,7E0,2.4E1,1.3E1,1.583E3,1.416E3,5.6E2,1.77E2,1.32E2,2.262E3,3.49E2,5.64E2,3.73E2,1.83E3,5.65E2,2.076E3,6.52E2,8.6E1,1.02E2,4.1E1,4E1,4.4E1,1.1E1,7E0,1.739E3,2.205E3,8.07E2,2.36E2,1.69E2,2E0,4.4E1,2.52E2,1E0,1.6E1,1.585E3,1.242E3,1.998E3,6.59E2,4.992E3,1.49E2,1.81E3,2.25E2,2.99E2,1.061E3,2.19E2,4.5E1,6.51E3,2.562E3,3.043E3,1.482E3,1.045E3,9.26E2,4.375E3,1.08E3,1.77E2,1.47E2,5.5E1,3E1,1.682E3,4.258E3,1.015E3,4.39E2,1.277E3,3.211E3,7.43E2,6.28E2,1.1E1,1.6E1,7E0,1.06E2,1.6E1,1E1,4.5E1,5.8E1,1.14E2,7.1E1,2.8E1,4.3E1,1.8E1,2.6E1,3.4E1,1.9E2,2.2E1,3.07E2,1.67E2,1.39E2,1E0,3E0,1.8E1,4E0,1E0,4E0,1.91E2,8.4E1,1.27E2,1.1E2,3.7E1,5.48E2,2.15E2,1.51E2,1.4E1,7E0,3E0,1.1E1,3.2E1,3E1,7.65E2,4.2E2,3.7E1,9E0,1.87E2,8.57E2,1E0,1.4E1],"tree_param":{"num_deleted":"0","num_feature":"7","num_nodes":"415","size_leaf_vector":"0"}},{"base_weights":[2.8366451E4,4.542749E4,2.4096666E4,3.7935598E4,8.981097E4,2.1435236E4,3.3866297E4,1.4017234E4,4.72053E4,8.033079E4,1.8119556E5,1.7251816E4,2.3143393E4,8.208315E4,3.0591178E4,1.3247328E4,3.921722E4,6.602948E4,2.8805521E4,1.2677437E5,6.53949E4,1.5418567E5,2.8409347E5,1.4642979E4,2.624159E4,4.1633812E4,1.9375783E4,1.4749966E5,2.9790125E4,2.5494617E4,4.7671742E4,9.610249E3,1.6374145E4,3.9609867E4,1.684807E4,6.160628E4,1.7201138E5,1.5739133E4,4.8163027E4,1.0939285E5,2.016265E5,4.5960496E4,1.01762586E5,2.297323E5,1.0641546E5,1.7739617E4,1.1304418E4,2.3249595E3,3.0426652E4,3.425829E4,1.02534125E5,1.7403059E4,2.2829262E4,1.5320142E5,1.2528806E5,4.262674E3,3.7694293E4,3.111387E4,1.3529288E4,1.4328868E4,7.796866E4,4.326674E3,1.0062826E4,1.5798616E4,1.8324479E4,4.793428E4,7.516034E4,2.5675853E5,6.2662367E4,4.861224E3,1.9289494E4,4.3796062E4,6.8288734E4,8.927207E4,1.6418477E5,1.803633E5,2.4577511E5,2.3583797E4,5.727367E4,8.7276125E4,1.205517E5,9.861507E4,1.3845298E5,1.6180234E4,4.934584E4,8.838534E3,1.4623235E4,9.220405E3,1.596012E3,2.3902566E4,5.10261E4,1.558067E4,4.427772E4,1.3119055E5,2.487131E4,1.6819705E4,2.6786951E4,9.269581E4,2.152883E4,1.3218027E5,1.588003E5,3.340035E4,4.3855273E4,2.9393701E4,1.617939E5,2.4235386E3,1.690723E4,2.0481105E4,1.0714629E4,5.9681867E4,9.955413E4,3.9504905E3,5.1142964E3,9.283866E3,1.3777874E4,1.6507887E4,1.2728003E4,1.916549E4,1.3908799E4,4.459616E4,6.0762277E4,3.7054945E4,8.128168E4,2.3639794E5,2.843448E5,6.840828E4,4.268828E4,4.2857886E3,7.70822E3,1.7484938E4,2.7736988E4,6.213535E4,4.0884457E4,7.612455E4,2.8006428E4,4.4296613E4,9.375772E4,1.24353836E5,2.5524872E5,1.9013888E5,9.487554E4,1.5390583E5,3.1378253E5,1.4405694E4,2.5833861E4,4.7147816E4,7.020287E4,1.0359623E5,8.352857E4,1.0864E5,1.30413914E5,6.699603E4,1.0319136E5,1.533825E5,3.2924492E4,1.1274955E4,2.2356678E4,4.158785E4,8.4275766E4,9.734654E3,6.9414026E2,4.0108344E4,1.3896181E4,1.3608832E3,2.5440051E3,3.5649676E4,1.6389152E4,9.4352375E4,2.9180818E4,9.625193E3,1.9814354E4,3.55959E5,3.817207E4,9.20606E4,1.6099544E5,1.9481348E4,2.626548E4,2.8525854E4,1.6303418E4,2.7927762E4,1.648913E4,1.7560588E4,2.682756E4,1.7231102E5,1.4433466E5,3.421773E4,1.6768814E4,4.622517E4,1.9388844E4,1.5911167E4,3.3471848E4,7.1388643E3,9.254144E2,3.3659043E4,9.869359E3,3.3674197E3,2.727895E4,7.841966E3,1.5859356E4,8.711261E4,5.448457E4,8.1629375E4,1.1262459E5,4.055892E3,9.067175E1,1.0318119E4,7.879934E3,2.453156E4,1.3084415E4,1.583397E4,2.2093984E4,1.3183435E4,1.0705701E4,4.666884E4,3.5787184E4,6.4790734E4,5.8693875E4,7.536241E4,1.3260744E4,1.0685137E5,6.872905E4,2.9820712E5,1.5856992E5,5.3309125E4,1.17675414E5,1.4171453E4,7.2400555E4,4.7751074E3,3.689936E3,8.654001E3,2.935806E3,2.6432934E4,1.6624062E4,3.0969662E4,1.2797352E4,3.464844E4,4.2703836E4,7.720599E4,2.0782715E4,9.0765805E4,1.2297466E5,1.6753475E5,1.1695453E5,9.693816E3,1.5152949E4,2.3947324E4,3.1381385E4,4.3029668E4,5.2814195E4,5.7452113E4,7.153511E4,6.671494E4,8.507026E4,1.3356769E5,9.8625375E4,1.0713012E5,7.443869E4,2.138133E4,8.987164E3,6.592581E4,1.9926156E4,6.866218E4,2.2577496E4,4.6502996E4,1.0501813E5,4.972297E3,1.149196E4,-5.508767E2,7.886964E2,1.0834407E4,1.6982592E4,1.8726025E3,1.0177049E3,2.1721545E3,3.1831472E3,3.1913264E4,3.9153203E4,1.5695206E4,1.9552045E4,8.151352E4,1.466453E5,5.208571E4,2.0222555E4,1.1613798E4,2.9917341E3,2.3256484E4,1.4672881E4,2.4606738E4,5.076124E4,1.7533883E5,1.2533371E5,3.3591797E4,4.5990225E3,2.0740717E4,1.4857891E4,2.8160088E4,2.0956771E4,2.3870682E4,1.173985E4,8.133345E4,1.9325271E4,9.533509E4,1.6336167E5,3.322295E4,4.424949E4,4.0414797E4,5.0321777E4,2.2342617E4,1.1188914E4,3.5472793E4,-1.09933556E2,7.112226E0,1.1269796E3,3.784054E4,1.5774598E4,7.355576E3,1.295931E4,1.9848708E3,3.5261357E3,2.0285166E4,3.4509176E4,1.0740482E4,3.6047053E3,1.9717637E4,8.758047E3,5.5878465E4,8.985649E4,5.7701883E4,2.564618E4,6.1070086E4,8.478383E4,1.4348706E5,1.06695805E5],"categories":[],"categories_nodes":[],"categories_segments":[],"categories_sizes":[],"default_left":[true,true,true,true,true,true,true,true,true,true,true,true,true,true,true,true,true,true,true,true,true,true,false,true,true,true,true,true,true,true,true,true,true,false,false,true,true,true,true,true,true,true,true,false,true,true,true,true,true,true,true,true,true,true,false,false,true,true,true,true,true,true,true,true,true,true,true,true,true,true,true,true,true,true,true,true,true,true,true,true,true,true,true,true,true,true,true,false,true,true,true,true,true,true,true,true,true,false,true,false,true,true,true,true,false,true,true,true,true,true,true,true,false,true,true,true,true,false,false,true,true,true,true,false,true,true,true,true,true,true,true,false,true,true,false,false,true,true,false,false,false,false,false,true,true,true,true,false,true,false,true,false,true,false,false,true,true,true,true,true,true,false,true,true,true,true,true,true,true,true,true,false,true,false,true,false,false,true,true,true,false,true,true,false,true,true,false,true,false,true,true,false,true,true,true,true,true,true,true,true,true,true,true,false,false,false,false,false,false,false,false,false,false,false,false,false,false,false,false,false,false,false,false,false,false,false,false,false,false,false,false,false,false,false,false,false,false,false,false,false,false,false,false,false,false,false,false,false,false,false,false,false,false,false,false,false,false,false,false,false,false,false,false,false,false,false,false,false,false,false,false,false,false,false,false,false,false,false,false,false,false,false,false,false,false,false,false,false,false,false,false,false,false,false,false,false,false,false,false,false,false,false,false,false,false,false,false,false,false,false,false,false,false,false,false,false,false,false,false,false,false,false,false,false,false,false,false,false,false,false,false,false,false],"id":4,"left_children":[1,3,5,7,9,11,13,15,17,19,21,23,25,27,29,31,33,35,37,39,41,43,-1,45,47,49,51,53,55,57,59,61,63,-1,-1,65,67,69,71,73,75,77,79,-1,81,83,85,87,89,91,93,95,97,99,-1,-1,101,103,105,107,109,111,113,115,117,119,121,123,125,127,129,131,133,135,137,139,141,143,145,147,149,151,153,155,157,159,161,-1,163,165,167,169,171,173,175,177,179,-1,181,-1,183,185,187,189,-1,191,193,195,197,199,201,203,-1,205,207,209,211,-1,-1,213,215,217,219,-1,221,223,225,227,229,231,233,-1,235,237,-1,-1,239,241,-1,-1,-1,-1,-1,243,245,247,249,-1,251,-1,253,-1,255,-1,-1,257,259,261,263,265,267,-1,269,271,273,275,277,279,281,283,285,-1,287,-1,289,-1,-1,291,293,295,-1,297,299,-1,301,303,-1,305,-1,307,309,-1,311,313,315,317,319,321,323,325,327,329,331,-1,-1,-1,-1,-1,-1,-1,-1,-1,-1,-1,-1,-1,-1,-1,-1,-1,-1,-1,-1,-1,-1,-1,-1,-1,-1,-1,-1,-1,-1,-1,-1,-1,-1,-1,-1,-1,-1,-1,-1,-1,-1,-1,-1,-1,-1,-1,-1,-1,-1,-1,-1,-1,-1,-1,-1,-1,-1,-1,-1,-1,-1,-1,-1,-1,-1,-1,-1,-1,-1,-1,-1,-1,-1,-1,-1,-1,-1,-1,-1,-1,-1,-1,-1,-1,-1,-1,-1,-1,-1,-1,-1,-1,-1,-1,-1,-1,-1,-1,-1,-1,-1,-1,-1,-1,-1,-1,-1,-1,-1,-1,-1,-1,-1,-1,-1,-1,-1,-1,-1,-1,-1,-1,-1,-1,-1,-1,-1,-1,-1],"loss_changes":[6.7519654E12,6.166432E12,1.9272114E12,3.5195223E12,2.3063744E12,4.160372E11,2.5040876E12,8.554604E10,3.9611552E12,1.67665E12,6.5379185E11,3.959685E11,2.8817091E12,3.4472203E12,1.2928145E12,4.881259E10,4.8324608E8,2.6403458E12,1.463216E12,7.455585E11,1.2958056E12,7.009374E11,0E0,1.35241925E11,3.802813E11,3.142037E12,2.3379155E11,3.7542167E10,1.1323595E11,7.6950064E11,3.448669E12,4.7221637E9,2.3078502E9,0E0,0E0,1.0026358E12,2.0782567E12,1.3341727E11,2.0196517E11,5.1562467E11,5.8932593E10,3.0268457E11,1.6367904E11,0E0,1.7584488E10,3.3410135E11,5.1486065E10,2.8352632E9,4.3340582E11,1.1685551E12,1.6792441E12,1.1933424E11,1.1331683E12,2.043832E10,0E0,0E0,9.884336E9,1.7465942E12,1.3729995E11,3.5957998E10,7.0022857E11,2.6906112E7,5.1823575E9,3.6970168E9,1.6682353E9,1.1316494E11,6.3261114E11,4.1135636E9,8.556708E9,1.3627638E9,3.9240794E10,9.992772E10,1.285448E11,6.7264315E10,4.3253576E11,4.714424E10,1.5788422E11,7.9916237E9,1.0103266E11,1.3670285E10,1.8255184E10,8.135115E9,2.961077E10,1.9598279E11,8.2939675E10,2.642061E10,4.9230316E10,0E0,1.1110874E8,2.1636094E11,7.326576E11,5.4850585E10,7.7240724E12,6.289558E11,1.0287841E9,1.2406017E11,1.4564983E10,0E0,2.5746263E11,0E0,2.8485091E10,2.9199565E9,9.134834E9,4.22347E11,0E0,6.0332365E9,3.3060494E11,6.982615E10,1.5053734E10,1.3368479E11,1.8268606E11,4.519744E7,0E0,2.1257585E9,2.0355072E9,5.123834E9,1.7292902E8,0E0,0E0,3.7603246E10,8.299479E8,3.444574E11,7.459664E11,0E0,3.8146146E10,5.026264E10,2.0156477E10,1.8968064E8,6.1553306E8,1.6122249E10,2.167446E10,0E0,1.7342923E10,1.910322E10,0E0,0E0,1.6898064E10,9.481355E9,0E0,0E0,0E0,0E0,0E0,1.4182912E8,2.6393477E9,8.2282414E9,1.8015846E9,0E0,2.1527265E9,0E0,1.4638121E9,0E0,2.1046231E9,0E0,0E0,8.332191E10,3.0218335E11,1.3381393E11,3.9775666E10,2.7242267E10,4.281512E7,0E0,2.4518E10,7.079718E7,1.7089856E7,1.1291329E10,2.9876552E9,1.6260556E11,1.05234104E11,1.1956167E10,2.2223225E10,0E0,6.799769E11,0E0,1.3761511E11,0E0,0E0,1.0517866E11,1.2628315E11,1.2723159E9,0E0,2.5744992E11,2.1456615E12,0E0,1.1308551E11,9.648865E8,0E0,1.7032806E9,0E0,5.405324E10,3.9672506E11,0E0,1.2030554E8,6.147362E10,1.5268741E10,3.0743552E7,2.1043642E10,8.079532E9,9.882681E9,8.091599E9,7.4508665E10,1.7455907E10,7.087273E10,0E0,0E0,0E0,0E0,0E0,0E0,0E0,0E0,0E0,0E0,0E0,0E0,0E0,0E0,0E0,0E0,0E0,0E0,0E0,0E0,0E0,0E0,0E0,0E0,0E0,0E0,0E0,0E0,0E0,0E0,0E0,0E0,0E0,0E0,0E0,0E0,0E0,0E0,0E0,0E0,0E0,0E0,0E0,0E0,0E0,0E0,0E0,0E0,0E0,0E0,0E0,0E0,0E0,0E0,0E0,0E0,0E0,0E0,0E0,0E0,0E0,0E0,0E0,0E0,0E0,0E0,0E0,0E0,0E0,0E0,0E0,0E0,0E0,0E0,0E0,0E0,0E0,0E0,0E0,0E0,0E0,0E0,0E0,0E0,0E0,0E0,0E0,0E0,0E0,0E0,0E0,0E0,0E0,0E0,0E0,0E0,0E0,0E0,0E0,0E0,0E0,0E0,0E0,0E0,0E0,0E0,0E0,0E0,0E0,0E0,0E0,0E0,0E0,0E0,0E0,0E0,0E0,0E0,0E0,0E0,0E0,0E0,0E0,0E0,0E0,0E0,0E0,0E0,0E0,0E0],"parents":[2147483647,0,0,1,1,2,2,3,3,4,4,5,5,6,6,7,7,8,8,9,9,10,10,11,11,12,12,13,13,14,14,15,15,16,16,17,17,18,18,19,19,20,20,21,21,23,23,24,24,25,25,26,26,27,27,28,28,29,29,30,30,31,31,32,32,35,35,36,36,37,37,38,38,39,39,40,40,41,41,42,42,44,44,45,45,46,46,47,47,48,48,49,49,50,50,51,51,52,52,53,53,56,56,57,57,58,58,59,59,60,60,61,61,62,62,63,63,64,64,65,65,66,66,67,67,68,68,69,69,70,70,71,71,72,72,73,73,74,74,75,75,76,76,77,77,78,78,79,79,80,80,81,81,82,82,83,83,84,84,85,85,86,86,88,88,89,89,90,90,91,91,92,92,93,93,94,94,95,95,96,96,98,98,100,100,101,101,102,102,103,103,105,105,106,106,107,107,108,108,109,109,110,110,111,111,113,113,114,114,115,115,116,116,119,119,120,120,121,121,122,122,124,124,125,125,126,126,127,127,128,128,129,129,130,130,132,132,133,133,136,136,137,137,143,143,144,144,145,145,146,146,148,148,150,150,152,152,155,155,156,156,157,157,158,158,159,159,160,160,162,162,163,163,164,164,165,165,166,166,167,167,168,168,169,169,170,170,172,172,174,174,177,177,178,178,179,179,181,181,182,182,184,184,185,185,187,187,189,189,190,190,192,192,193,193,194,194,195,195,196,196,197,197,198,198,199,199,200,200,201,201,202,202],"right_children":[2,4,6,8,10,12,14,16,18,20,22,24,26,28,30,32,34,36,38,40,42,44,-1,46,48,50,52,54,56,58,60,62,64,-1,-1,66,68,70,72,74,76,78,80,-1,82,84,86,88,90,92,94,96,98,100,-1,-1,102,104,106,108,110,112,114,116,118,120,122,124,126,128,130,132,134,136,138,140,142,144,146,148,150,152,154,156,158,160,162,-1,164,166,168,170,172,174,176,178,180,-1,182,-1,184,186,188,190,-1,192,194,196,198,200,202,204,-1,206,208,210,212,-1,-1,214,216,218,220,-1,222,224,226,228,230,232,234,-1,236,238,-1,-1,240,242,-1,-1,-1,-1,-1,244,246,248,250,-1,252,-1,254,-1,256,-1,-1,258,260,262,264,266,268,-1,270,272,274,276,278,280,282,284,286,-1,288,-1,290,-1,-1,292,294,296,-1,298,300,-1,302,304,-1,306,-1,308,310,-1,312,314,316,318,320,322,324,326,328,330,332,-1,-1,-1,-1,-1,-1,-1,-1,-1,-1,-1,-1,-1,-1,-1,-1,-1,-1,-1,-1,-1,-1,-1,-1,-1,-1,-1,-1,-1,-1,-1,-1,-1,-1,-1,-1,-1,-1,-1,-1,-1,-1,-1,-1,-1,-1,-1,-1,-1,-1,-1,-1,-1,-1,-1,-1,-1,-1,-1,-1,-1,-1,-1,-1,-1,-1,-1,-1,-1,-1,-1,-1,-1,-1,-1,-1,-1,-1,-1,-1,-1,-1,-1,-1,-1,-1,-1,-1,-1,-1,-1,-1,-1,-1,-1,-1,-1,-1,-1,-1,-1,-1,-1,-1,-1,-1,-1,-1,-1,-1,-1,-1,-1,-1,-1,-1,-1,-1,-1,-1,-1,-1,-1,-1,-1,-1,-1,-1,-1,-1],"split_conditions":[3.5E0,2.215E2,2.035E2,2.35E1,2.685E2,1.05E1,2.075E2,2.5E0,2.13E2,2.39E2,2.705E2,1.515E2,1.25E1,1.6E1,2.25E1,2.25E1,1.45E1,1.985E2,2.185E2,1.35E1,2.665E2,2.695E2,5.6818695E4,1.11E2,6.5E0,1.225E2,1.95E1,1.15E1,2.05E1,2.55E2,2.565E2,1.5E0,1.25E1,7.9219736E3,3.369614E3,2.65E1,2.08E2,2.165E2,1.35E1,2.225E2,2.225E2,2.645E2,9.5E0,4.594646E4,1.35E1,1.035E2,7.5E0,5E0,1.72E2,2.8E1,1.44E2,1.92E2,4.2E1,3.5E0,2.5057613E4,8.525348E2,1.05E1,2.515E2,2.595E2,2.115E2,2.745E2,1.25E1,1.35E1,9.5E0,1.45E1,1.25E1,1.5E0,2.025E2,1E1,1.35E1,1.35E1,2.195E2,1.45E1,5E-1,2.5E0,1.45E1,2.5E0,2.5E0,1.05E1,1.5E0,1.35E1,2.5E0,1.45E1,6.25E1,1.085E2,1.315E2,1.355E2,1.844081E3,1.925E2,1.635E2,1.77E2,1.6E1,4.2E1,1.235E2,3.5E0,1.35E1,2.005E2,1.8539162E4,1.48E2,2.6436053E4,5.5E0,9.5E0,1.45E1,2.285E2,3.2358781E4,1.3E1,2.765E2,2.1E2,2.545E2,2.645E2,4.5E0,1.15E1,1.0228593E3,5.5E0,2.15E1,8.5E0,1.15E1,3.8330981E3,2.7817598E3,9.5E0,1.35E1,1.195E2,1.79E2,4.727959E4,1.35E1,8.5E0,1.15E1,5.5E0,1.45E1,2.175E2,1.45E1,1.242707E4,3.5E0,2.205E2,5.6012856E3,8.859323E3,1.25E1,2.5E0,5.1049746E4,3.8027777E4,1.8975107E4,3.0781166E4,6.2756508E4,3.5E0,1.25E1,4.5E0,2.655E2,2.0719246E4,3.5E0,2.1728E4,1.45E1,1.3399206E4,1.15E1,3.06765E4,6.5848984E3,2.35E1,6.8E1,1.045E2,5E0,1.125E2,5E-1,8.021669E3,1.395E2,6.5E0,1.15E1,8.5E0,1.35E1,1.735E2,8.5E0,1E1,1.15E1,7.1191805E4,7.95E1,1.8412121E4,1.245E2,3.8962695E3,5.253096E3,1.34E2,4E1,1.45E1,3.2978262E3,1.085E2,1.74E2,3.4462203E4,8.5E0,8.5E0,3.353763E3,1.35E1,3.8777688E3,1.2E1,2.495E2,1.4277728E3,1.5E0,1.85E1,1.7E1,1.5E0,4.5E0,2.535E2,2.555E2,1.5E0,2.735E2,1.5E0,5.5E0,8.111784E2,1.8134352E1,2.0636238E3,1.5759868E3,4.906312E3,